{"main/fc1/weights:0": [[-0.021990438923239708, -0.018174979835748672, -0.022346176207065582, -0.010257168672978878, -0.04473458230495453, -0.027871491387486458, 0.02498321421444416, 0.03053850121796131, -0.06171993538737297, 0.032038647681474686, 0.041357073932886124, 0.012319776229560375, -0.014210456982254982, -0.07607430964708328, -0.07949694991111755, -0.040086545050144196, 0.03412694111466408, 0.03204407915472984, 0.02012978121638298, 0.022821294143795967, -0.08262322098016739, 0.0401691272854805, -0.34468603134155273, -0.43869641423225403, -0.024143442511558533, 0.05109851062297821, -0.01296088844537735, 0.15659338235855103, -0.0006696134223602712, 0.05678275600075722, -0.012908725067973137, 0.02777615748345852, -0.015455642715096474, -0.01418877299875021, -0.10183289647102356, -0.06385891884565353, -0.034427396953105927, 0.020007111132144928, -0.004309448879212141, 0.015807388350367546, 0.028837667778134346, -0.01037015300244093, -0.0026133349165320396, 0.17726604640483856, -0.03153770789504051, -0.05768018215894699, 0.1478864848613739, -0.013659554533660412, 0.013839473947882652, 0.01237364299595356, 0.00965065136551857, -0.03789081424474716, -0.3116799294948578, -0.03244156762957573, 0.16040974855422974, -0.030565083026885986, 0.022473134100437164, 0.042572129517793655, -0.16226516664028168, -0.1246146485209465, -0.0037423265166580677, -0.037571877241134644, -0.0020475084893405437, -0.02498164400458336, -0.013844501227140427, 0.032004214823246, -0.006744818761944771, 0.02836674451828003, 0.12918518483638763, -0.017107712104916573, 0.0006456131231971085, 0.05473574995994568, -0.0016601100796833634, 0.1345701664686203, -0.029011739417910576, 0.029000278562307358, -0.0035789613611996174, 0.005811905488371849, 0.05989625304937363, -0.3037373721599579, 0.010029809549450874, -0.004329972434788942, 0.013556067831814289, -0.07974591106176376, 0.1143658310174942, 0.008178886957466602, 0.015752369537949562, -0.015154706314206123, 0.04746675491333008, 0.027009176090359688, 0.11461644619703293, 0.05168943479657173, 0.043810781091451645, 0.037629686295986176, 0.0026656414847820997, 0.012756540440022945, 0.03515079990029335, 0.01930702105164528, -0.3663758337497711, -0.025194495916366577, 0.012226475402712822, 0.01741713657975197, -0.00675187399610877, -0.05735953152179718, -0.47797322273254395, -0.05534182861447334, 0.06011146679520607, 0.010479262098670006, -0.03550200164318085, -0.00690465560182929, 0.0006700403173454106, -0.05707519128918648, 0.007916719652712345, 0.004602695815265179, 0.024096248671412468, -0.10690808296203613, -6.181950448080897e-05, 0.017272939905524254, -0.07945822924375534, -0.04826206713914871, -0.013983705081045628, -0.10225486010313034, 0.007173666264861822, 0.05122629925608635, -0.04939226433634758, -0.06386538594961166, -0.04174848273396492, 0.008890398778021336, -0.024335412308573723, -0.015211163088679314, -0.09644170105457306, 0.010092592798173428, 0.027898874133825302, 0.041617199778556824, 0.012029866687953472, -0.01266880240291357, 0.0022259459365159273, -0.04095585271716118, -0.015682265162467957, -0.017843591049313545, -0.05303146690130234, 0.1258745640516281, -0.4145815074443817, 0.044955939054489136, 0.033573709428310394, -0.029883326962590218, -0.04059232771396637, 0.018939003348350525, 0.02327016368508339, -0.1544276922941208, -0.1567659080028534, 0.08453082293272018, -0.005163365509361029, 0.01077666413038969, -0.023418227210640907, 0.0125857163220644, 0.013754242099821568, -0.005969609599560499, 0.01608273573219776, 0.15590378642082214, -0.015229844488203526, 0.03299878537654877, -0.0033297541085630655, 0.0048095667734742165, 0.03521309792995453, 0.005554975941777229, 0.023450125008821487, -0.046867966651916504, -0.01706882007420063, -0.008425393141806126, -0.15625937283039093, -0.01578911393880844, -0.05442648008465767, -0.020706456154584885, 0.037707675248384476, 0.031015560030937195, -0.052627082914114, 0.03611866012215614, 0.028030836954712868, -0.012070778757333755, 0.016523919999599457, -0.09414318948984146, 0.012172422371804714, -0.012407482601702213, -0.02225305512547493, 0.14884033799171448, 0.040722258388996124, 0.010960044339299202, 0.015127149410545826, -0.02084113284945488, -0.008959285914897919, 0.1099456250667572, 0.02597155049443245, -0.024393191561102867, -0.16636694967746735, 0.026781253516674042, 0.03426003456115723, -0.004906891379505396, -0.002805469324812293, -0.0012514290865510702, -0.03437107801437378, 0.008989835157990456, 0.0432465597987175, 0.009138987399637699, -0.03926520422101021, -0.012101884000003338, 0.011350222863256931, -0.06441224366426468, -0.022803042083978653, 0.042623117566108704, -0.006468090694397688, 0.0022483463399112225, 0.025372518226504326, 0.013696813955903053, -0.5628095269203186, -0.23784735798835754, 0.02726002037525177, -0.05149604380130768, -0.027882317081093788, 0.04925965517759323, 0.02099965512752533, -0.006982119288295507, -0.28011003136634827, 0.025563819333910942, 0.04014197364449501, -0.034294795244932175, 0.09409814327955246, -0.060701481997966766, -0.019528938457369804, 0.015966109931468964, 0.034088391810655594, -0.08088812232017517, -0.02852097526192665, 0.04180276021361351, 0.07829482853412628, -0.00544095691293478, 0.027176424860954285, 0.05448141694068909, -0.023519208654761314, -0.0037845245096832514, -0.013488400727510452, 0.021115697920322418, -0.004263725597411394, -0.08831314742565155, -0.05180066451430321, 0.007410595193505287, 0.006238950416445732, 0.02589830756187439, 0.007981263101100922, -0.03500399366021156, 0.031933095306158066, -0.016806961968541145, -0.044605791568756104, 0.004190819803625345, -0.034256547689437866, -0.01950916089117527], [-0.05873185396194458, 0.015184903517365456, 0.07601127028465271, 0.0433618389070034, -0.12207335978746414, -0.010247625410556793, 0.06771755963563919, -0.017202552407979965, -0.03498770296573639, 0.05774319916963577, 0.06579502671957016, -0.003815185511484742, 0.07736790925264359, 0.032999247312545776, 0.04657408222556114, -0.07588888704776764, 0.03280774876475334, 0.03654060512781143, 0.04287099838256836, 0.02492312528192997, 0.02467012032866478, -0.16737771034240723, -0.01876251772046089, 0.008850067853927612, -0.02855968102812767, 0.051839057356119156, 0.040556371212005615, 0.10599487274885178, 0.02674536220729351, 0.04242822155356407, 0.04562738537788391, -0.00644024508073926, 0.04447334632277489, 0.003625711193308234, -0.020095594227313995, -0.019480306655168533, -0.16365088522434235, 0.05290727689862251, 0.00676483241841197, 0.02286907471716404, 0.015981517732143402, 0.002568808849900961, -0.008843223564326763, 0.1251208782196045, 0.0029782650526612997, -0.03943059220910072, 0.01975853554904461, 0.08315771818161011, 0.07234345376491547, -0.009913858026266098, 0.015986492857336998, -0.001595983630977571, 0.04196428507566452, 0.034912873059511185, 0.011393047869205475, 0.00015020275895949453, -0.0029357837047427893, -0.11779651790857315, -0.03847783803939819, -0.1486222743988037, 0.027197524905204773, 0.03255881369113922, 0.07884656637907028, 0.0008388985297642648, 0.013470628298819065, 0.05469520390033722, 0.011424791999161243, 0.0642222985625267, 0.07290107756853104, -0.008333982899785042, -0.012683150358498096, -0.038088493049144745, -0.008027839474380016, 0.08717234432697296, -0.029224731028079987, -0.020208846777677536, 0.06831971555948257, 0.005454222206026316, -0.05494188889861107, 0.0138099305331707, 0.02257944829761982, -0.014490865170955658, -0.38934794068336487, 0.07965739816427231, 0.009575029835104942, 0.05056062340736389, -0.03733397275209427, -0.0033329862635582685, 0.029511380940675735, -0.010755312629044056, 0.05366659536957741, 0.014952710829675198, 0.02538129687309265, 0.058820586651563644, 0.058774810284376144, 0.034669484943151474, -0.009082276374101639, 0.03863011673092842, 0.0489778108894825, 0.05034312978386879, 0.048207879066467285, 0.024178098887205124, -0.029081644490361214, -0.037653304636478424, -0.06644642353057861, -0.006783843040466309, 0.021675994619727135, 0.06184227019548416, -0.019487980753183365, 0.023813864216208458, 0.034330181777477264, -0.03426250070333481, 0.06740859150886536, -0.033526286482810974, 0.04302200675010681, 0.09695479273796082, -0.03816382586956024, 0.005912457592785358, 0.011854247190058231, 0.004696469753980637, -0.0034539680927991867, -0.212172269821167, -0.005313638132065535, 0.04364034906029701, 0.041543833911418915, -0.11514299362897873, -0.242266446352005, 0.040618184953927994, 0.028252732008695602, -0.020635955035686493, 0.031378116458654404, 0.05348580330610275, 0.039016954600811005, 0.07925374805927277, 0.015977241098880768, 0.06296906620264053, 0.022929459810256958, -0.0212114080786705, 0.05087779462337494, 0.016865966841578484, -0.035125453025102615, 0.11826616525650024, -0.10742005705833435, 0.0382545031607151, 0.05930084362626076, -0.03771505132317543, 1.7711499822326005e-06, -0.008667737245559692, 0.08066156506538391, 0.0063738031312823296, -0.008193095214664936, -0.03727051243185997, 0.01674443669617176, -0.016120774671435356, -0.019514601677656174, 0.04123585298657417, -0.004138563293963671, -0.0048347399570047855, 0.011715110391378403, -0.04343927279114723, -0.02631300315260887, 0.006932641379535198, 0.020737456157803535, -0.002358516212552786, -0.03979945555329323, 0.055304113775491714, 0.03499925881624222, -0.006988611537963152, 0.010355724953114986, 0.022133678197860718, -0.1544167399406433, 0.022434638813138008, -0.06376978009939194, -0.006413912866264582, 0.006562788039445877, 0.041379258036613464, -0.02829526737332344, 0.03357810899615288, 0.05832942947745323, 0.025690991431474686, 0.01825389638543129, -0.028829466551542282, -0.01358706597238779, 0.016514014452695847, -0.08817633986473083, -0.09236259758472443, 0.04324517399072647, 0.009630468674004078, 0.005753266625106335, 0.031093889847397804, -0.03775091841816902, 0.058924220502376556, 0.059909310191869736, -0.001343360054306686, -0.006085600238293409, 0.040284302085638046, -0.005943079013377428, 0.006947479210793972, -0.030289804562926292, -0.0001641927083255723, 0.024665113538503647, 0.009535889141261578, -0.018990885466337204, 0.07444943487644196, 0.004412999842315912, -0.02741686813533306, 0.05362085625529289, 0.027303317561745644, -0.012956611812114716, -0.09945866465568542, -0.011938775889575481, -0.015619909390807152, 0.055527038872241974, 0.0316721610724926, -0.08779513835906982, 0.025146398693323135, 0.04786749929189682, 0.0004229915502946824, -0.008399817161262035, -0.012793516740202904, -0.009104937314987183, 0.032140228897333145, -0.019916938617825508, 0.024422485381364822, 0.07754169404506683, 0.06419187039136887, 0.16168802976608276, -0.033786874264478683, 0.0015951344976201653, -0.018981654196977615, 0.08899145573377609, -0.09072460979223251, -0.019466428086161613, 0.0829441249370575, 0.1079709455370903, -0.0038224682211875916, 0.07006101310253143, 0.022674527019262314, -0.05623950809240341, 0.08391056954860687, -0.0594584196805954, 0.012088149785995483, 0.005524116568267345, -0.006014456041157246, 0.034344933927059174, -0.0704505443572998, -0.025240296497941017, -0.014939657412469387, -0.029408609494566917, 0.03948309272527695, -0.005990673787891865, 0.05657187104225159, -0.019842034205794334, -0.0083193713799119, 0.016397232189774513, 0.018388623371720314], [0.03635614365339279, -0.026919282972812653, -0.01727149449288845, 0.05553443357348442, 0.030703352764248848, -0.03170695900917053, 0.04475018382072449, 0.0029236599802970886, -0.13531430065631866, 0.046491049230098724, 0.08083654195070267, -0.016329778358340263, 0.057720527052879333, -0.01998036541044712, 0.08239666372537613, 0.05315079540014267, 0.03773893415927887, 0.013733633793890476, 0.07569005340337753, 0.004670355003327131, -0.0031024550553411245, 0.027310756966471672, 0.10878297686576843, 0.03400638327002525, 0.0825444832444191, 0.06579980999231339, 0.05767720192670822, 0.24561648070812225, 0.02664811722934246, 0.0600387267768383, 0.026922782883048058, 0.0342758409678936, 0.05271747708320618, 0.011655054986476898, 0.05127217248082161, 0.03228023648262024, 0.08064392954111099, 0.07081323117017746, -0.036765336990356445, 0.045022718608379364, 0.07023122906684875, -0.03636147826910019, 0.06055418401956558, 0.26505330204963684, -0.0012766211293637753, -0.02979424223303795, -0.03152796998620033, 0.032306864857673645, 0.04713205620646477, 0.0038369973190128803, 0.006047557573765516, 0.005814015865325928, -0.0012247688136994839, 0.04948541149497032, -0.008610577322542667, 0.005953548010438681, 0.029183058068156242, -0.03650706261396408, 0.009399984031915665, -0.21572254598140717, 0.0075315628200769424, 0.05365005508065224, 0.04825211316347122, -0.0026485922280699015, -0.003155564656481147, 0.08867448568344116, 0.003553577233105898, 0.03505809232592583, -0.12031582742929459, 0.003047516103833914, 0.016175463795661926, 0.08797188103199005, 0.006078541278839111, 0.12536142766475677, -0.03833968937397003, 0.013221642933785915, 0.08407587558031082, -0.029435517266392708, -0.011857038363814354, 0.020788002759218216, 0.0005002121324650943, -0.03644043207168579, -0.19225859642028809, 0.07761162519454956, -0.06048613041639328, 0.005942119751125574, 0.0037991099525243044, -0.014863239601254463, 0.05626853182911873, -0.013142880983650684, 0.04721193015575409, 0.05250486359000206, 0.04377063736319542, 0.0769866406917572, 0.089296355843544, 0.02652660384774208, -0.0013130800798535347, 0.04727158695459366, 0.043919213116168976, 0.006602054461836815, 0.07437043637037277, -0.027260147035121918, 0.014042295515537262, -0.010842940770089626, 0.0004401838523335755, -0.031075341627001762, -0.02583971805870533, 0.0010047971736639738, -0.02407468482851982, -0.001738336868584156, 0.049000512808561325, 0.07184738665819168, 0.05855927988886833, 0.028423670679330826, 0.0031016096472740173, 0.07732491195201874, -0.01716899685561657, -0.030430803075432777, 0.05328264459967613, -0.037411682307720184, -0.009063529781997204, -0.14456497132778168, -0.011014876887202263, 0.03921597823500633, 0.0016345966141670942, 0.0748114138841629, 0.016851184889674187, 0.033127561211586, 0.008107234723865986, 0.014735028147697449, 0.04441472515463829, -0.03233520686626434, 0.07937350869178772, 0.11327652633190155, 0.06615763157606125, -0.03802195563912392, 0.007765361573547125, 0.051427971571683884, 0.044174499809741974, 0.05429789423942566, -0.017989562824368477, -0.008716451935470104, -0.08027903735637665, 0.04266062751412392, 0.03530270606279373, -0.019050881266593933, 0.005984493996948004, -0.013477836735546589, 0.07992146164178848, -0.04161011800169945, -0.02268991433084011, -0.0645749568939209, 0.0028003216721117496, -0.002837155945599079, 0.019904032349586487, -0.038942720741033554, -0.03671829774975777, 0.011432837694883347, -0.026038089767098427, 0.018641863018274307, 0.06077081337571144, -0.0028624925762414932, -0.02837560698390007, 0.06695743650197983, 0.04184732958674431, 0.05055748671293259, 0.06136505305767059, -0.04821097478270531, -0.02772478573024273, -0.0010830541141331196, -0.08124572038650513, 0.00826546922326088, 0.12952309846878052, 0.011562048457562923, 0.03604128956794739, 0.02387489564716816, 0.01435204315930605, 0.07709954679012299, 0.008550630882382393, -0.003917987458407879, 0.06540800631046295, 0.028482338413596153, 0.08219614624977112, -0.004708640743046999, -0.027119094505906105, 0.09664478898048401, 0.0333188958466053, -0.02283344976603985, 0.07953866571187973, 0.02038600482046604, -0.01985824853181839, 0.08551738411188126, 0.08544869720935822, 0.01788143813610077, 0.06227545067667961, 0.07716640830039978, -0.012009922415018082, 0.030190369114279747, 0.0017551560886204243, -0.004964168183505535, -0.026323338970541954, -0.02767007425427437, -0.028071856126189232, 0.12297902256250381, -0.04668787121772766, 0.025763187557458878, 0.06484536081552505, 0.10992933064699173, 0.009133093990385532, -0.09511672705411911, -0.008383218199014664, 0.013870522379875183, 0.04564972594380379, -0.002044504042714834, 0.05160892382264137, 0.0011300368933007121, 0.09609684348106384, -0.055396564304828644, 0.07641235738992691, 0.041560810059309006, 0.0033071055077016354, 0.05483397841453552, -0.028162064030766487, 0.004736935254186392, 0.19844092428684235, 0.11929533630609512, -0.006250645034015179, -0.10042950510978699, 0.002273085294291377, 0.0023142469581216574, 0.11599262058734894, -0.1685815453529358, 0.019483238458633423, -0.08171763271093369, 0.10591896623373032, 0.022422799840569496, 0.04514918848872185, 0.08732049912214279, 0.00934409536421299, 0.05189630761742592, -0.04391947388648987, -0.0031711868941783905, 0.021410783752799034, 0.06118809059262276, 0.009686186909675598, 0.0041609350591897964, -0.018374128267169, -0.02098221518099308, 0.011760897934436798, 0.06010124832391739, -0.01856578141450882, -0.0030394981149584055, 0.04311425983905792, 0.06236206740140915, -0.02313501201570034, 0.04963554069399834], [-0.022391626611351967, -0.02784435823559761, 0.07417808473110199, 0.04325247183442116, -0.011908282525837421, -0.02735499106347561, 0.022049514576792717, 0.012487966567277908, 0.04958029091358185, 0.041600748896598816, 0.040516722947359085, -0.009502563625574112, 0.05173790454864502, 0.06347041577100754, 0.04765356332063675, 0.012422557920217514, 0.02619560994207859, -0.0024324755650013685, 0.062203299254179, 0.023600785061717033, 0.06462401896715164, -0.05265812948346138, 0.01573995314538479, 0.02448970451951027, -0.004471202846616507, 0.03606760874390602, 0.048323627561330795, 0.0560603067278862, 0.049531638622283936, 0.050627052783966064, 0.03575688600540161, 0.022247901186347008, 0.05054860562086105, -0.001970587996765971, 0.014843091368675232, 0.00345613737590611, -0.020659057423472404, 0.042658861726522446, 0.014455258846282959, 0.059083446860313416, 0.016592567786574364, -0.02016320638358593, 0.029369058087468147, 0.16059722006320953, -0.03317788243293762, -0.04268701374530792, 0.005851355381309986, 0.0035670027136802673, 0.05627898499369621, -0.009455257095396519, 0.007433708757162094, -0.025286804884672165, -0.02542375773191452, 0.05118929222226143, 0.03067862242460251, -0.03240761160850525, -0.013971725478768349, -0.04326916113495827, -0.018081145361065865, 0.021612094715237617, 0.02887027896940708, 0.01630878821015358, 0.058093708008527756, -0.035207051783800125, -0.00843710545450449, 0.07303820550441742, 0.011304846033453941, 0.03635953366756439, 0.00676287105306983, -0.003879800671711564, -0.01081473845988512, -0.017847495153546333, 0.07689251005649567, 0.025548165664076805, 0.004452178254723549, -0.00402040546759963, 0.06923611462116241, -0.027016565203666687, -0.006946474313735962, -0.02578797936439514, 0.017799966037273407, -0.04037906229496002, 0.0264911986887455, -0.046685874462127686, -0.11746643483638763, -0.021872282028198242, 0.01032283715903759, -0.011157712899148464, 0.04910500347614288, -0.02884075976908207, -0.015702934935688972, 0.053726840764284134, 0.05031342804431915, 0.04921059310436249, 0.0392964743077755, 0.03459940105676651, -0.025335175916552544, 0.04397950693964958, 0.0012082846369594336, 0.02743220143020153, 0.02369639091193676, 0.02183062769472599, 0.004147924017161131, 0.061238743364810944, 0.0034357435069978237, 0.0038409093394875526, 0.0015243655070662498, 0.022143010050058365, 0.009732529520988464, 0.013107397593557835, 0.07511778920888901, 0.042661264538764954, 0.029565230011940002, 0.027896130457520485, -0.01575666293501854, 0.004585865885019302, -0.011686318553984165, -0.022678617388010025, -0.0263817235827446, -0.009946449659764767, -0.009431332349777222, -0.031028538942337036, -0.031995370984077454, 0.029808280989527702, 0.05979705974459648, -0.050764989107847214, 0.02145707979798317, -0.04027378559112549, 0.0020501092076301575, 0.008920530788600445, 0.020712243393063545, 0.009457152336835861, 0.03852468356490135, 0.03952229022979736, 0.0006012808880768716, 0.06916271150112152, 0.006277746986597776, -0.04760264977812767, 0.003846872830763459, 0.003468333510681987, 0.05266128107905388, 0.004971074406057596, 0.025149956345558167, 0.05184369906783104, 0.05182216688990593, 0.008960301987826824, -0.02707039937376976, 0.0065889302641153336, 0.05403858423233032, 0.02395165152847767, 0.047364167869091034, 0.008302348665893078, 0.0024762984830886126, -0.023424092680215836, 0.008196604438126087, -0.023168524727225304, 0.0071534663438797, -0.03344682976603508, -0.01993277296423912, -0.03252206742763519, -0.02957005426287651, -0.012654013931751251, -0.026934467256069183, -0.012010554783046246, -0.02129342593252659, 0.02226545847952366, 0.02942751720547676, -0.04381869360804558, -0.04521654173731804, 0.007358201313763857, -0.01744716614484787, -0.05701925978064537, 0.048923928290605545, -0.013614648021757603, 0.03426874801516533, 0.045497775077819824, 0.002103167586028576, 0.048847198486328125, 0.022871216759085655, 0.0052192178554832935, 0.06245042756199837, 0.019827868789434433, 0.013903873041272163, -0.002606360474601388, -0.02246977388858795, -0.015815401449799538, 0.011876649223268032, 0.015004696324467659, 0.006188670173287392, 0.0162490326911211, -0.04945211485028267, 0.01778469979763031, 0.008706354536116123, -0.00012794701615348458, -0.00937992986291647, 0.07839824259281158, -0.021833350881934166, -0.004963562823832035, 0.015329672023653984, -0.016964444890618324, 0.018581580370664597, -0.04409389570355415, -0.050018008798360825, 0.07165295630693436, -0.0739307701587677, -0.014609359204769135, 0.04609978199005127, 0.020912205800414085, 0.014888756908476353, 0.05642557144165039, -0.03375956043601036, 0.016247082501649857, 0.04174862802028656, 0.015102782286703587, 0.009680362418293953, 0.0629858672618866, 0.04155977815389633, -0.04490956664085388, 0.00590343214571476, 0.05982951819896698, -0.030841559171676636, 0.028948472812771797, 0.019875543192029, -0.003548291977494955, 0.1281643658876419, 0.05967770144343376, 0.0118472371250391, -0.025976084172725677, -0.014034269377589226, 0.004213388543576002, 0.0790996104478836, -0.023830344900488853, -0.0029837226029485464, -0.008358520455658436, 0.02043674886226654, -0.020933831110596657, -0.0064383456483483315, 0.0742683857679367, 0.010035945102572441, 0.05883292481303215, -0.04504762962460518, 0.016380099579691887, -0.0072844806127250195, 0.046846114099025726, -0.02230605110526085, -0.026577411219477654, 0.003263533115386963, 0.0018115524435415864, -0.0021065182518213987, 0.05572628974914551, -0.019406011328101158, 0.03841828554868698, 0.05735164135694504, -0.003849165514111519, -0.03285627439618111, 0.000940707337576896], [0.12299061566591263, -0.05242887884378433, -0.035186685621738434, 0.1593693196773529, 0.25758230686187744, -0.10182508081197739, 0.1710483282804489, -0.0036995327100157738, 0.23166988790035248, 0.13574910163879395, 0.15562641620635986, -0.02754942886531353, 0.1482636034488678, 0.22673112154006958, -0.07667417824268341, 0.5051223039627075, 0.09823713451623917, -0.20851457118988037, 0.1196819543838501, 0.19309669733047485, 0.16078095138072968, 0.034928835928440094, 0.15756823122501373, -0.6170628070831299, 0.029680179432034492, 0.13000261783599854, 0.1624791920185089, -0.1281595677137375, 0.15525370836257935, 0.12165641784667969, 0.11346500366926193, 0.17808058857917786, 0.14136476814746857, -0.0006344906287267804, 0.0793018788099289, 0.12721024453639984, 0.1388428807258606, 0.09239558130502701, 0.026990856975317, 0.12078097462654114, 0.0781068205833435, 0.01799081638455391, -0.20922981202602386, 0.005058277864009142, -0.029811790212988853, -0.14015498757362366, -0.7770636081695557, 0.09339018166065216, 0.1034989207983017, 0.0017535077640786767, -0.0012618884211406112, -0.02591489814221859, 0.4031345844268799, 0.10837908089160919, -0.8447879552841187, -0.17973607778549194, 0.028599994257092476, -0.1558944582939148, 0.12802894413471222, -0.0747251808643341, 0.08250512927770615, 0.4201635718345642, 0.16496539115905762, -0.006560131907463074, -0.008735807612538338, 0.12747809290885925, -0.012400547973811626, 0.1697739064693451, 0.4098055064678192, 0.13986238837242126, -0.021866610273718834, 0.1465958207845688, 0.2790464162826538, -0.13791048526763916, -0.01875784620642662, -0.03612782061100006, 0.18804685771465302, -0.008192003704607487, 0.43898677825927734, -0.3861828148365021, 0.0013981370721012354, -0.07530002295970917, 0.00152601080480963, 0.047052014619112015, -0.17938709259033203, -0.24707148969173431, -0.01278523076325655, 0.028629116714000702, 0.19890709221363068, 0.0028221493121236563, 0.09203261137008667, 0.1519317775964737, 0.15146738290786743, 0.1875362992286682, 0.11583716422319412, 0.09414790570735931, -0.17719677090644836, 0.20848886668682098, -0.4749050438404083, 0.19048835337162018, 0.13137607276439667, 0.010968254879117012, 0.022622348740696907, 0.22057481110095978, 0.16746173799037933, 0.6106482744216919, 0.15437501668930054, 0.21202772855758667, 0.010571029037237167, 0.1823883354663849, 0.165308877825737, 0.13638009130954742, 0.16887107491493225, 0.6224820017814636, -0.16029593348503113, 0.11413155496120453, -0.004439835902303457, 0.02602512575685978, 0.09688170999288559, -0.08467579632997513, -0.02050885371863842, -0.05744968727231026, 0.0035137683153152466, 0.127656951546669, 0.2557130455970764, -0.129659041762352, 0.3052005469799042, 0.19464647769927979, 0.004044659435749054, -0.0020856144838035107, 0.03203372284770012, 0.00282609392888844, 0.09712677448987961, 0.08732054382562637, 0.10874337702989578, -0.11653775721788406, -0.007372279651463032, 0.582372784614563, 0.03211592882871628, 0.09996175020933151, 0.2144692987203598, -0.33931201696395874, 0.08843979984521866, 0.13619863986968994, 0.19549839198589325, 0.0022894181311130524, 0.0659097358584404, -9.674954344518483e-05, 0.1773616522550583, 0.14291445910930634, 0.2259708046913147, 0.29918372631073, -0.03198181092739105, 0.012981591746211052, -0.0041952854953706264, -0.11559297144412994, -0.0007736478582955897, -0.016223054379224777, -0.05795881897211075, -0.0650469958782196, -0.14980566501617432, -0.1425781548023224, -0.0976431742310524, 0.15223418176174164, 0.20974037051200867, 0.17454208433628082, 0.15596170723438263, -0.12618306279182434, -0.12928782403469086, 0.008743285201489925, -0.1716780960559845, -0.13525527715682983, -0.04373158514499664, 0.0019471702398732305, 0.16161008179187775, 0.11914139240980148, 0.17571672797203064, 0.15017767250537872, 0.18500617146492004, -0.020714057609438896, 0.21229961514472961, 0.06747637689113617, -0.21102659404277802, 0.018812736496329308, -0.12714171409606934, -0.24022738635540009, -0.25632965564727783, -0.02585967443883419, 0.18116864562034607, -0.005293411202728748, -0.1548004448413849, 0.07359863817691803, -0.04844719544053078, -0.03198426589369774, 0.1366782933473587, 0.14123399555683136, -0.012412709183990955, 0.09918632358312607, -0.017361819744110107, -0.005987796001136303, 0.025881895795464516, -0.03847614675760269, -0.18129028379917145, 0.007501943036913872, -0.19498120248317719, 0.027301907539367676, 0.016305403783917427, 0.01902286522090435, -0.01311900932341814, 0.16057081520557404, 0.01484629139304161, 0.03876757621765137, 0.15028464794158936, 0.17163477838039398, -0.21494819223880768, 0.2800762355327606, 0.04493573680520058, -0.20137202739715576, 0.023987513035535812, 0.0807165801525116, 0.0037927415687590837, 0.15073886513710022, -0.04105028882622719, -0.2025606632232666, -0.00020862955716438591, -0.24149467051029205, -0.2913133502006531, -0.18614651262760162, -0.028409671038389206, -0.03086886554956436, 0.10419762134552002, -0.2647722065448761, -0.023799654096364975, 0.23392297327518463, 0.11120207607746124, 0.012315683998167515, 0.05062832310795784, 0.09994585812091827, 0.18680228292942047, 0.1414434164762497, -0.08985645323991776, 0.0024334301706403494, 0.018507951870560646, 0.06270026415586472, 0.06931894272565842, 0.16112300753593445, -0.016782768070697784, -0.038693711161613464, 0.011373501271009445, 0.1254730373620987, -0.06197754666209221, 0.13966961205005646, 0.12048306316137314, 0.13807760179042816, -0.2406889945268631, 0.0812339335680008], [0.21496379375457764, -0.048628464341163635, 0.01166484784334898, 0.03289986029267311, 0.11911294609308243, -0.06929779797792435, 0.04461472108960152, -0.014216522686183453, -0.022285697981715202, 0.02480623498558998, 0.06228584796190262, -0.014193176291882992, 0.037202753126621246, 0.03788086026906967, -0.06674624979496002, -0.15863974392414093, 0.08190905302762985, -0.07505171746015549, 0.025053996592760086, 0.03655967861413956, 0.02768605202436447, 0.0919015184044838, -0.010702511295676231, 0.010156987234950066, -0.12757274508476257, 0.06256401538848877, 0.03250989690423012, -0.03392950817942619, 0.07579536736011505, 0.047064077109098434, 0.04852348938584328, 0.04913851246237755, 0.0644804835319519, 0.018255002796649933, -0.0034213862381875515, 0.12250072509050369, 0.03901168704032898, 0.0035929358564317226, 0.002172686392441392, 0.06091807410120964, -0.01609560288488865, 0.0277741476893425, -0.140623077750206, 0.051115792244672775, -0.029325446113944054, -0.004627367947250605, 0.10372405499219894, 0.025097796693444252, 0.049702130258083344, 0.003920459654182196, -0.020163562148809433, 0.007788960821926594, -0.004468973726034164, 0.031220361590385437, 0.0510648712515831, 0.029302425682544708, 0.019854292273521423, -0.043130431324243546, 0.14766663312911987, -0.2761181890964508, -0.05063820630311966, -0.019410593435168266, 0.026681797578930855, -0.00979842059314251, 0.0072563462890684605, 0.04025072231888771, -0.01194672379642725, 0.05323397368192673, 0.1786048263311386, -0.0025681480765342712, 0.0008630637894384563, 0.04117639362812042, 0.04986270144581795, 0.05125223845243454, 0.02557966485619545, 0.009860232472419739, 0.0361030250787735, -0.020859984681010246, 0.04919296130537987, 0.047708772122859955, -0.0017499817768111825, -0.01616760715842247, -0.24434402585029602, 0.03345271572470665, -0.38012760877609253, -0.04263272136449814, -0.0016893374267965555, -0.013566053472459316, 0.03136210888624191, -0.007846754044294357, -0.04051089286804199, 0.060156889259815216, 0.005424938630312681, 0.08081457763910294, 0.027383645996451378, 0.016337528824806213, -0.11297576129436493, 0.056008294224739075, 0.035168230533599854, 0.027531210333108902, 0.06370453536510468, 0.014414033852517605, -0.025162935256958008, 0.03748098388314247, 0.03148297592997551, 0.02220207266509533, 0.05972764268517494, 0.0477287694811821, 0.010988573543727398, -0.00827297568321228, 0.08489973098039627, -0.11417645961046219, 0.046546660363674164, -0.05725795403122902, -0.05609876289963722, -0.09999572485685349, -0.007256838493049145, -0.012314781546592712, -0.01488383486866951, -0.012586047872900963, -0.00886256992816925, -0.13234800100326538, 0.002047707326710224, 0.059913527220487595, 0.06400975584983826, 0.15581321716308594, -0.1279539316892624, 0.020657474175095558, -0.06922443956136703, -0.00142087007407099, -0.029832899570465088, -0.04538940265774727, 0.011209843680262566, 0.02662026509642601, 0.058113086968660355, 0.053774964064359665, -0.023510035127401352, -0.10397123545408249, 0.016724122688174248, -0.04951721057295799, -0.008227098733186722, 0.03576861694455147, -0.010997076518833637, 0.043647147715091705, 0.04312128201127052, 0.019277449697256088, -0.030824678018689156, 0.00545027619227767, 0.038196057081222534, 0.035611335188150406, -0.037702836096286774, 0.13649630546569824, -0.02626291662454605, 0.006391940172761679, -0.0035144048742949963, -0.05757377669215202, 0.0021302811801433563, 0.010969498194754124, -0.03186330199241638, -0.09575949609279633, -0.03660985454916954, -0.03829905390739441, -0.017675764858722687, 0.014716756530106068, 0.07984397560358047, 0.060045886784791946, 0.0491759367287159, -0.032349999994039536, 0.027147209271788597, -0.0014369593700394034, -0.010160049423575401, -0.00267491745762527, -0.12330318242311478, -0.0054963878355920315, 0.06682386994361877, 0.04440966993570328, -0.029484936967492104, 0.06792663782835007, 0.03177427873015404, -0.013647813349962234, 0.05708162486553192, -0.03338318318128586, -0.12899015843868256, 0.01386608462780714, -0.04664367064833641, -0.09425424039363861, -0.0372910313308239, -0.00545892771333456, 0.0839143618941307, -0.009926562197506428, 0.033717282116413116, -0.07605902850627899, -0.05052851885557175, -0.015558996237814426, -0.04998946934938431, 0.05695482715964317, 0.02920524589717388, 0.018466714769601822, 0.006683726795017719, 0.021047383546829224, -0.02148491144180298, -0.0037639406509697437, -0.015978308394551277, 0.011172820813953876, -0.11724567413330078, 0.0043937708251178265, 0.04323086142539978, 0.016990922391414642, -0.006667363923043013, -0.058624688535928726, -0.031732600182294846, -0.017291203141212463, 0.04653314873576164, 0.05001991242170334, -0.1730262041091919, 0.0005294363363645971, 0.06437601149082184, -0.03363484889268875, -0.16054941713809967, -0.004678306169807911, 0.012815178371965885, 0.018572362139821053, 0.02595076523721218, -0.05993332341313362, 0.05733675882220268, -0.006006017792969942, 0.08830470591783524, -0.08516091108322144, -0.0016782887978479266, 0.015624706633388996, 0.06278207898139954, -0.12055381387472153, -0.006282986141741276, 0.13771817088127136, -0.06194036081433296, -0.0035529115702956915, 0.011960272677242756, 0.0483253076672554, 0.03527123108506203, 0.04135807603597641, -0.027361314743757248, -0.00026316544972360134, 0.004796434659510851, -0.11042727530002594, -0.009998828172683716, 0.2709364891052246, -0.02519049309194088, -0.021667221561074257, -0.002554049249738455, 0.04275594651699066, -0.0012869503116235137, 0.04816637933254242, 0.06903146952390671, 0.09741256386041641, -0.05428795516490936, -0.010314150713384151], [0.06051742285490036, -0.03518039360642433, -0.2897575795650482, 0.04936994984745979, 0.16693313419818878, 0.002334761433303356, 0.07941114902496338, 0.022894129157066345, 0.2060360163450241, 0.07227913290262222, 0.02210795134305954, 0.00015102462202776223, 0.08528076857328415, 0.03450851887464523, 0.05662507191300392, 0.43998998403549194, 0.033437617123126984, -0.1540563404560089, 0.03968515619635582, 0.08806026726961136, 0.030212540179491043, 0.27986782789230347, -0.09668490290641785, -0.08728785812854767, -0.056578394025564194, 0.008928250521421432, 0.005537673365324736, -0.18517187237739563, 0.0447356291115284, 0.02468777820467949, 0.02940056100487709, 0.03563826531171799, 0.05503590404987335, 0.02508634515106678, 0.04352380707859993, 0.10767626017332077, 0.11651208251714706, -0.03653482347726822, -0.017507484182715416, 0.026624465361237526, 0.02394748479127884, 0.01201292872428894, 0.019911784678697586, -0.010724890977144241, -0.010942716151475906, -0.04353614151477814, -0.014996195212006569, 0.11349451541900635, 0.02740645408630371, -0.008528157137334347, -0.0368708111345768, -0.004231508821249008, 0.04813046380877495, 0.04931308329105377, -0.15599775314331055, -0.10894162952899933, 0.0016535063041374087, -0.09132958948612213, 0.161357581615448, 0.1398627907037735, 0.03923724591732025, 0.20297354459762573, 0.0771130695939064, 3.344512151670642e-05, 0.021211106330156326, 0.03259856626391411, 0.0061635421589016914, 0.07244061678647995, -0.16108544170856476, 0.050087619572877884, 0.008308853022754192, 0.08963357657194138, 0.10910679399967194, -0.1076972633600235, -0.00749025447294116, -0.013936401344835758, 0.06290271878242493, 0.0267373938113451, 0.23827295005321503, -0.10141624510288239, -0.005232512019574642, -0.0281386598944664, -0.06007698178291321, -0.22619639337062836, 0.13678297400474548, -0.0722908079624176, 0.0003126779047306627, 0.029144827276468277, 0.10081984102725983, 0.028244730085134506, 0.031707022339105606, -0.011177241802215576, 0.03447236120700836, 0.009005782194435596, 0.029316412284970284, -0.02345491386950016, -0.05716841295361519, 0.07471223920583725, -0.0842209979891777, 0.038578350096940994, 0.01913411170244217, 0.013953770510852337, -0.004587964154779911, 0.007900619879364967, 0.5479910373687744, 0.22973759472370148, 0.09458506107330322, 0.03698081150650978, 0.0047103664837777615, 0.08264048397541046, 0.051468029618263245, 0.1137341856956482, 0.07025667279958725, 0.20013472437858582, -0.0844825878739357, -0.0305421631783247, -0.016226395964622498, 0.008732818067073822, 0.0029466229025274515, -0.04924243316054344, 0.00045881219557486475, 0.02864590659737587, 0.006192595697939396, 0.06990762799978256, 0.1378287374973297, 0.0768677219748497, 0.6501449346542358, 0.6225870251655579, -0.06529168784618378, 0.006615836638957262, 0.012985989451408386, 0.01763843558728695, 0.066957488656044, 0.07788100838661194, 0.07710735499858856, -0.14304599165916443, -0.004005883354693651, 0.2971690595149994, -5.574099122895859e-05, -0.2441931813955307, 0.014391609467566013, -0.4689105749130249, 0.033771924674510956, 0.03863411024212837, 0.065736785531044, 0.029137905687093735, 0.043664004653692245, -0.010296035557985306, 0.06352116167545319, 0.13051298260688782, -0.03090229630470276, 0.08699294924736023, 0.03715765103697777, -0.019678372889757156, 0.0003015895781572908, 0.01933041773736477, 0.0004953481256961823, -0.0111765181645751, -0.02948595955967903, -0.03335804119706154, 0.21248449385166168, -0.06704948842525482, 0.0017681163735687733, 0.10020285844802856, 0.0591442734003067, 0.05136904865503311, 0.06097451224923134, 0.007627313025295734, -0.10460809618234634, -0.014229404740035534, -0.0027340687811374664, -0.047798462212085724, 0.0485479012131691, 0.01678614504635334, 0.04111078381538391, 0.032430585473775864, 0.17593644559383392, 0.07456693798303604, 0.10114863514900208, -0.012751342728734016, 0.0554865226149559, -0.06485974788665771, -0.001649260288104415, -0.011728701181709766, -0.08061932027339935, -0.01783010922372341, -0.20316080749034882, -0.004731238819658756, 0.06441369652748108, -0.015892814844846725, -0.007637450471520424, 0.0014650014927610755, 0.03374773636460304, 0.009876738302409649, 0.11890731006860733, 0.06147782877087593, -0.026851743459701538, 0.022965751588344574, 0.0020037898793816566, 0.0033715839963406324, -0.03331444784998894, 0.05090068280696869, -0.06936832517385483, 0.0521845668554306, 0.08848285675048828, -0.001070507918484509, 0.014916776679456234, -0.1330018788576126, -0.010948182083666325, 0.08526775240898132, 0.02185448445379734, 0.023592019453644753, 0.014478208497166634, 0.11075601726770401, 0.07552753388881683, -0.03137196972966194, 0.009401499293744564, 0.0044413222931325436, -0.24085284769535065, 0.01039300300180912, 0.01443919725716114, -0.08363042771816254, 0.03418578952550888, -0.11907874792814255, -0.03550597280263901, -0.14273394644260406, -0.6065895557403564, -0.005556655116379261, -0.023702038452029228, -0.0004551763413473964, 0.0018271331209689379, 0.009807128459215164, -0.028623666614294052, -0.020443756133317947, -0.030532022938132286, 0.009056990034878254, -0.025375286117196083, 0.08014295250177383, 0.07469122111797333, 0.023358331993222237, -0.06751644611358643, 0.01685752160847187, 0.004494780674576759, 0.07142987102270126, -0.02484481781721115, -0.023087559267878532, 0.012234065681695938, -0.02420778013765812, -0.019714800640940666, 0.037517596036195755, -0.11158543080091476, 0.06463766098022461, -0.025584837421774864, 0.009050524793565273, -0.11229605227708817, 0.020255357027053833], [0.033754613250494, 0.08243164420127869, -0.04667855426669121, -0.03999272733926773, 0.09314553439617157, 0.03461095318198204, -0.026680948212742805, -0.011543280445039272, 0.07889965921640396, -0.07136842608451843, -0.01499174814671278, -0.0013931060675531626, -0.024809759110212326, -0.05744685232639313, -0.20972312986850739, -0.2508240342140198, -0.056022483855485916, 0.041310183703899384, -0.0649304986000061, -0.021054130047559738, -0.05067795142531395, 0.17913590371608734, -0.2265397310256958, 0.19180446863174438, -0.23570360243320465, -0.0566851980984211, -0.025169406086206436, -0.18909719586372375, -0.08000209927558899, -0.08035290986299515, -0.06568430364131927, -0.053890276700258255, -0.060105156153440475, 0.024411125108599663, -0.09790428727865219, 0.2104846090078354, -0.04093581810593605, -0.07550188153982162, -0.015028737485408783, -0.05731717497110367, -0.11485006660223007, -0.011988615617156029, -0.19812551140785217, -0.07690124213695526, -0.0033049117773771286, 0.05508643388748169, 0.2569378614425659, -0.05608801543712616, -0.06882777810096741, -0.005090299062430859, -0.01030952949076891, 0.026208827272057533, -0.2221219688653946, -0.010254651308059692, 0.14989759027957916, 0.060295481234788895, -0.03029150702059269, -0.0454765222966671, 0.2440876066684723, 0.05673413723707199, -0.07417409121990204, -0.16248765587806702, -0.038654014468193054, 0.01743588224053383, 0.00035104117705486715, -0.042461100965738297, -0.0010969972936436534, -0.055889248847961426, 0.15569546818733215, -0.08099695295095444, 0.00593560142442584, -0.029842350631952286, 0.04223944991827011, 0.04551151394844055, -0.007614391390234232, -0.01786184497177601, -0.054137349128723145, -0.011778438463807106, 0.04565802216529846, 0.1896703541278839, 0.023976299911737442, 0.028078019618988037, 0.006268708501011133, -0.013716381974518299, -0.37732169032096863, -0.006195312365889549, 0.02407851070165634, -0.038783490657806396, -0.05140521004796028, 0.01076977327466011, -0.11524827033281326, -0.06843435019254684, -0.06429273635149002, -0.01723533682525158, -0.033552251756191254, -0.07875415682792664, -0.12114374339580536, -0.048066455870866776, 0.215990349650383, -0.07161445915699005, -0.03601488098502159, 0.02405252680182457, -0.028744179755449295, -0.06964700669050217, 0.14862968027591705, -0.09317582100629807, 0.15749159455299377, -0.02757638320326805, -0.011809430085122585, 0.012503727339208126, -0.0259688813239336, -0.18736718595027924, -0.05217655375599861, -0.22067810595035553, 0.009749875403940678, -0.18817317485809326, -0.015537927858531475, 0.019328022375702858, -0.04638934135437012, 0.06564740836620331, 0.01015553716570139, 0.05784494802355766, -0.031754638999700546, -0.07376451045274734, -0.0188186913728714, 0.07575074583292007, -0.20871177315711975, 0.06880731880664825, -0.1023881584405899, -0.025656286627054214, -0.0872693881392479, 0.019382750615477562, -0.04466553404927254, -0.08303703367710114, -0.049542251974344254, 0.13001388311386108, -0.02983580343425274, -0.08665475249290466, -0.0950179323554039, -0.14955486357212067, -0.07018973678350449, 0.07201223820447922, 0.31594929099082947, -0.07488872855901718, -0.06506665050983429, 0.013537852093577385, -0.003373862011358142, 0.014972614124417305, -0.005064773373305798, 0.33643943071365356, -0.21045748889446259, 0.16680189967155457, -0.047400567680597305, -0.012917003594338894, 0.018679192289710045, 0.003124396549537778, 0.007565422914922237, 0.019009742885828018, 0.027166293933987617, -0.1682370901107788, -0.01501457393169403, 0.0734599158167839, 0.01224425807595253, -0.04620685428380966, -0.054414596408605576, -0.027980582788586617, -0.04168327897787094, 0.022801462560892105, 0.038422226905822754, -0.004069682210683823, 0.09100180119276047, 0.04312548786401749, -0.1706019639968872, -0.013704764656722546, -0.015794001519680023, -0.03104288876056671, -0.08888649940490723, -0.025432536378502846, -0.029460959136486053, 0.020299240946769714, -0.055029742419719696, -0.08545614778995514, -0.18133167922496796, -0.02394730970263481, 0.057645779103040695, -0.30895963311195374, 0.04241828992962837, 0.03807201609015465, -0.07099652290344238, -0.017924269661307335, 0.007588800508528948, -0.13681595027446747, -0.15133625268936157, 0.006324596703052521, -0.19012150168418884, -0.038962285965681076, 0.0054751294665038586, -0.11741624027490616, -0.00669126445427537, 0.026661396026611328, 0.03627296909689903, -0.05121936649084091, -0.031544916331768036, -0.12905395030975342, -0.012769382447004318, 0.0032283724285662174, -0.07075024396181107, -0.21304503083229065, 0.015738703310489655, -0.07161868363618851, -0.013916442170739174, -0.016314618289470673, -0.04670858755707741, -0.07706160098314285, -0.18976084887981415, -0.2206217646598816, -0.07989580929279327, -0.0005512479692697525, -0.20042811334133148, 0.17377310991287231, 0.0076675391755998135, -0.07705589383840561, 0.31749609112739563, 0.05216619372367859, -0.05905545875430107, 0.014165929518640041, 0.14655925333499908, 0.037133220583200455, 0.02397185191512108, -0.0038916871417313814, -0.09129919856786728, 0.03271731361746788, 0.01270448137074709, 0.12211828678846359, -0.12778528034687042, 0.01817270927131176, -0.027341976761817932, -0.0736439973115921, 0.01225409284234047, -0.006897688843309879, -0.013144808821380138, 0.00977199524641037, -0.015268050134181976, -0.024286121129989624, -0.1262238323688507, 0.085932657122612, 0.03754096478223801, 0.012444665655493736, -0.036143261939287186, 0.013612807728350163, 0.03442265838384628, -0.07146582007408142, -0.017254503443837166, -0.0643741562962532, 0.01868404448032379, -0.013314470648765564], [-0.05827421322464943, 0.0033405162394046783, 0.023556571453809738, -0.011167594231665134, 0.007934127934277058, -0.023718800395727158, 0.000980757991783321, -0.01294894702732563, 0.10619871318340302, 0.012561490759253502, 0.03341133892536163, -0.006993367802351713, 0.04450557753443718, 0.025538237765431404, -0.0940614566206932, -0.0976749062538147, -0.012156520038843155, 0.013527601025998592, -0.021425077691674232, 0.02259601466357708, 0.004635626450181007, -0.11003769934177399, -0.12493029981851578, -0.0074218688532710075, -0.07409888505935669, 0.014281303621828556, 0.02476704865694046, -0.07302651554346085, -0.003245346248149872, -0.019446659833192825, -0.00833241455256939, -0.01000045333057642, 0.0016918724868446589, 0.011857310310006142, -0.070746511220932, -0.003503443906083703, -0.0890398845076561, -0.05763864144682884, -0.038286980241537094, -0.030569983646273613, -0.041269946843385696, -0.004024542402476072, -0.08219163119792938, 0.034408777952194214, -0.02131681516766548, -0.06275341659784317, 0.09451289474964142, 0.014179657213389874, -0.036008886992931366, -0.026499472558498383, 0.001151769538410008, 0.00013091035361867398, -0.08794857561588287, 0.015652576461434364, 0.033958278596401215, -0.06272506713867188, -0.008455086499452591, -0.0006595227750949562, -0.038384124636650085, 0.13245032727718353, -0.06183759123086929, -0.0753571167588234, -0.0016232944326475263, 0.03361804410815239, -0.0013799496227875352, 0.022341396659612656, -0.017789732664823532, 0.025349900126457214, 0.08452644944190979, -0.009265811182558537, -0.022699281573295593, -0.03875606134533882, 0.07247457653284073, 0.03126553073525429, -0.006881868466734886, 0.012760022655129433, 0.036370016634464264, 0.006521890871226788, -0.007709892466664314, -0.04039093479514122, -0.014380806125700474, -0.030826596543192863, 0.12345054745674133, -0.0987977683544159, 0.07681664079427719, -0.04415515065193176, 0.02261151745915413, -0.008205071091651917, -0.0034344817977398634, 0.007834676653146744, -0.010026548057794571, -0.007718550506979227, 0.0014320060145109892, 0.0065835327841341496, -0.014106564223766327, 0.04561198875308037, -0.01967993564903736, 0.046612996608018875, -0.05724851414561272, 0.012273448519408703, -0.036500684916973114, -0.026106292381882668, -0.009599395096302032, 0.027900395914912224, -0.03129992261528969, -0.007629438303411007, 0.05376912280917168, 0.035417892038822174, 0.01369752362370491, 0.021387699991464615, -0.005662876181304455, -0.07371407747268677, 0.025184381753206253, -0.039939723908901215, -0.0478009469807148, -0.0743209570646286, 0.006388118024915457, -0.003564673475921154, -0.03237958624958992, 0.05669469013810158, -0.0198899507522583, 0.0827706977725029, 0.006908676587045193, 0.0320807620882988, 0.03677700087428093, -0.04624459519982338, -0.1167864203453064, -0.044182438403367996, -0.03887388855218887, 0.03457970172166824, -0.03928692266345024, -0.02987435832619667, -0.024702176451683044, 0.01829349994659424, 0.02882869727909565, 0.0019275256199762225, -0.03157433122396469, -0.049823399633169174, -0.0726565569639206, 0.00201940955594182, -0.008185944519937038, 0.07876436412334442, 0.10143157839775085, 0.05524008721113205, 0.03842518851161003, 0.01686164364218712, -0.0024344357661902905, 0.037744782865047455, 0.049209073185920715, 0.04794907197356224, -0.015465497970581055, 0.1003844141960144, -0.013044887222349644, -0.017604844644665718, -0.0018411235651001334, -0.013408971019089222, -0.006216788198798895, -0.009303413331508636, 0.019773976877331734, 0.04131287336349487, -0.07081402838230133, -0.007573340088129044, -0.0222287829965353, -0.03310805559158325, -0.012459807097911835, 0.024045400321483612, 0.012504405342042446, -0.0506264865398407, -0.01991349644958973, 0.0163686852902174, -0.012444240972399712, 0.008850843645632267, -0.09107094258069992, -0.007682830095291138, 0.035597216337919235, 0.006921843625605106, 0.007512162905186415, 0.032766636461019516, 0.006408592686057091, 0.009206867776811123, 0.029696276411414146, -0.031223054975271225, -0.068339042365551, 0.01681934855878353, -0.028183819726109505, -0.00528609286993742, 0.013606385327875614, -0.0019298718543723226, -0.04497546702623367, 0.0018894234672188759, -0.030263319611549377, -0.04936964437365532, -0.034786563366651535, 0.021945960819721222, -0.06414946168661118, 0.023598598316311836, -0.01637217402458191, -0.06312128156423569, 0.0014427588321268559, -0.02795780822634697, -0.03424868360161781, -0.0334746316075325, -0.014327077195048332, -0.06532295048236847, -0.057747527956962585, 0.025979971513152122, -0.013323585502803326, -0.019554296508431435, 0.029547013342380524, 0.10999389737844467, -0.010819947347044945, -0.013232994824647903, -0.011815540492534637, 0.036366306245326996, -0.06324446946382523, 0.014036235399544239, 0.016894765198230743, -0.05273652449250221, -0.05750903859734535, 0.05177631229162216, -0.018575062975287437, -0.013665692880749702, -0.025050396099686623, -0.051469605416059494, 0.02854222245514393, -0.060863129794597626, 0.040501248091459274, -0.04128654673695564, -0.0055357166565954685, 0.004974540323019028, 0.013282236643135548, -0.014216432347893715, 0.0015993335982784629, 0.008058479987084866, -0.026271972805261612, 0.01176777295768261, -0.03350472450256348, 0.013545714318752289, -0.032897140830755234, 0.02890167012810707, -0.05951077491044998, 0.006538849789649248, -0.00424072565510869, -0.04777941107749939, -0.025409001857042313, -0.013614265248179436, 0.013493887148797512, 0.008255976252257824, -0.0036689306143671274, -0.004370789974927902, 0.00560818612575531, 0.039767660200595856, -0.005224050488322973, -0.05114418640732765, -0.024493688717484474, -0.030026698485016823], [-0.19268286228179932, 0.04665069654583931, -0.05714678391814232, 0.0022460133768618107, -0.34574994444847107, 0.022736085578799248, 0.02096427232027054, -0.005410161335021257, 0.14593936502933502, -0.0047802976332604885, -0.0037065737415105104, -0.012982452288269997, 0.0038649896159768105, 0.022265031933784485, -0.06307090073823929, 0.38495203852653503, -0.0027734555769711733, -0.05600813403725624, 0.00094267085660249, -0.015299756079912186, -0.01261216588318348, -0.18030443787574768, 0.0637730285525322, -0.45194289088249207, 0.20079053938388824, -0.00010663805005606264, 0.011856264434754848, -0.027749672532081604, 0.007910600863397121, -0.022319471463561058, -0.0508863665163517, -0.047392286360263824, 0.011805256828665733, 0.013776333071291447, -0.0913185104727745, -0.04303835704922676, -0.03435153141617775, -0.02307996153831482, -0.027962813153862953, -0.03646162897348404, -0.025544986128807068, 0.018061356619000435, -0.0327279195189476, -0.03469649702310562, 0.07561198621988297, -0.1953936070203781, -0.16104651987552643, -0.07487513870000839, -0.005847832188010216, -0.025185933336615562, 0.019918590784072876, 0.006651675328612328, 0.310907781124115, -0.030240828171372414, -0.27249234914779663, -0.31530430912971497, 0.026594191789627075, -0.07772790640592575, -0.4068361818790436, 0.20189864933490753, -0.008647224865853786, 0.0808587372303009, -0.008574577048420906, 0.014554685913026333, 0.021146072074770927, -0.020915742963552475, -0.00469787186011672, 0.02692331001162529, -0.10685785859823227, 0.02700887806713581, -0.025985917076468468, -0.023695770651102066, -0.07266910374164581, -0.02172355353832245, 6.476744601968676e-05, 0.009750675410032272, -0.01890665851533413, -0.044185392558574677, 0.030593259260058403, -0.7092698812484741, -0.021750716492533684, -0.03820406645536423, 0.24458613991737366, -0.1596645712852478, 0.1408417671918869, -0.18480445444583893, 0.015384758822619915, -0.013904317282140255, -0.026705734431743622, -0.031647369265556335, 0.06826527416706085, -0.03161320462822914, -0.021940825507044792, -0.01496936660259962, -0.0068620736710727215, 0.047726329416036606, -0.13882866501808167, -0.01770889200270176, -0.5198920369148254, -0.0006826728349551558, 0.029025346040725708, -0.033043790608644485, 0.023585384711623192, -0.014759956859052181, 0.03301495686173439, 0.20907142758369446, 0.09192506968975067, 0.0415915846824646, -0.01896374486386776, 0.082717165350914, -0.046795379370450974, 0.18700124323368073, 0.0059842499904334545, 0.36498475074768066, -0.07474302500486374, 0.04390216991305351, 0.021397113800048828, 0.01694806106388569, -0.02315639890730381, -0.10951684415340424, -0.0007489540730603039, -0.04543513432145119, -0.011804670095443726, -0.033670421689748764, 0.020315760746598244, -1.301771640777588, 0.42390820384025574, -0.07613430917263031, -0.05351721867918968, 0.013622217811644077, -0.023887721821665764, -0.09708995372056961, -0.01257944293320179, 0.01470352802425623, -0.055601660162210464, -0.18513990938663483, -0.02057640440762043, 0.3765670657157898, 0.012190117500722408, 0.3765806555747986, 0.053306471556425095, -0.19566014409065247, 0.05678635090589523, -0.006214482244104147, -0.03263777494430542, 0.01378921139985323, -0.06806351244449615, 0.027026714757084846, 0.000686538580339402, 0.11416174471378326, 0.025387272238731384, 0.13297636806964874, -0.007340486627072096, -0.004857455845922232, 0.03287600353360176, 0.02492787502706051, 0.007241271436214447, 0.007611974608153105, -0.018401673063635826, 0.025477837771177292, 0.10294263064861298, -0.0738280788064003, -0.048664823174476624, -0.030855761840939522, 0.06259168684482574, -0.07862015813589096, 0.03297478333115578, -0.031623970717191696, -0.22268807888031006, 0.00048674410209059715, -0.29020610451698303, -0.08179736882448196, 0.053046099841594696, -0.0070618875324726105, 0.03714556246995926, -0.021178685128688812, 0.08208854496479034, -0.02976866252720356, 0.021775513887405396, -0.021521862596273422, -0.05653500184416771, 0.0888386145234108, -0.17736214399337769, 0.005236394237726927, -0.17856110632419586, 0.020208241418004036, -0.03824744373559952, -0.007956189103424549, 0.04264101758599281, 0.03309176117181778, -0.18747735023498535, 0.0679096058011055, 0.04899878427386284, 0.019385265186429024, 0.2491001933813095, -0.015151552855968475, -0.0014542224816977978, -0.010180949233472347, 0.008698645047843456, 0.013367139734327793, 0.031676970422267914, 0.004070112016052008, -0.22098557651042938, -0.013207332231104374, -0.24340787529945374, 0.01388948131352663, -0.00895532127469778, 0.032234665006399155, 0.03610881045460701, 0.11055449396371841, 0.005066961050033569, -0.02836466394364834, 0.02726362645626068, 0.05320972949266434, 0.14385190606117249, 0.03167581930756569, 0.03277939558029175, -0.20413213968276978, 0.11291547864675522, 0.13857272267341614, -0.03100503608584404, -0.0008295708103105426, -0.3584344983100891, -0.06264742463827133, 0.037185750901699066, -0.2824763357639313, -0.23700085282325745, -0.12268730252981186, 0.008151042275130749, -0.01343630813062191, 0.04681926220655441, -0.2640683948993683, -0.0068017966113984585, 0.10933730751276016, 0.17439204454421997, 0.0021309328731149435, 0.07628320902585983, 0.025484632700681686, 0.017332738265395164, 0.013809073716402054, -0.12428271025419235, -0.013552793301641941, -0.024272838607430458, 0.07208038866519928, -0.014526426792144775, -0.7288457751274109, 0.008723964914679527, -0.019962789490818977, -0.012615208514034748, -0.007344792131334543, -0.1335398107767105, 0.03559250384569168, -0.006630999036133289, 0.03996729105710983, -0.15049012005329132, 0.012906367890536785], [0.3858460783958435, -0.22161617875099182, -0.049642015248537064, 0.2996603846549988, 0.3201119005680084, -0.28422707319259644, 0.25817278027534485, 0.021717224270105362, 0.29799866676330566, 0.2269907146692276, 0.2117609977722168, -0.01555013656616211, 0.2570526599884033, 0.2616508901119232, 0.01671804115176201, -0.16877587139606476, 0.26220935583114624, -0.28562501072883606, 0.25797924399375916, 0.2941805422306061, 0.26905563473701477, 0.16610565781593323, -0.0208215843886137, -0.09073860943317413, 0.07005535066127777, 0.22140458226203918, 0.25478091835975647, -0.22762936353683472, 0.27148371934890747, 0.20065326988697052, 0.22023357450962067, 0.21541573107242584, 0.27648434042930603, -0.017191074788570404, 0.1962480992078781, -0.17542918026447296, 0.254373162984848, 0.10269341617822647, 0.002806503791362047, 0.21177977323532104, 0.1989545375108719, -0.006651174742728472, 0.21450114250183105, 0.1017584428191185, -0.1160118579864502, -0.34570327401161194, 0.2614881694316864, 0.25400930643081665, 0.23972390592098236, -0.009892961010336876, 0.012632588855922222, -0.014716101810336113, 0.1398705542087555, 0.2711546719074249, 0.22809377312660217, -0.29877761006355286, 0.014217737130820751, -0.279624879360199, -0.2492082715034485, -0.09821995347738266, 0.12712153792381287, 0.05544224753975868, 0.2500104010105133, -0.008369218558073044, 0.014813290908932686, 0.2690684199333191, 0.032372742891311646, 0.32055458426475525, -0.13612985610961914, 0.17841528356075287, 0.020511269569396973, 0.24513603746891022, 0.1461203396320343, -0.12567320466041565, -0.019386056810617447, -0.023690100759267807, 0.26886841654777527, -0.049048710614442825, -0.0504070483148098, -0.08348466455936432, 0.017259253188967705, -0.27849435806274414, -0.14370645582675934, 0.13442839682102203, 0.0991782397031784, -0.3455258011817932, 0.008149459026753902, -0.008544077165424824, 0.27338698506355286, -0.023538285866379738, 0.23153597116470337, 0.2531006336212158, 0.22659121453762054, 0.28274279832839966, 0.22283872961997986, 0.13695478439331055, 0.06594419479370117, 0.2756458818912506, -0.18102605640888214, 0.2896832525730133, 0.23007023334503174, 0.027835436165332794, 0.01555667258799076, 0.3199828863143921, 0.21599163115024567, 0.15165583789348602, -0.2337384819984436, 0.25488194823265076, 0.025458553805947304, 0.37508371472358704, 0.2505277991294861, -0.36328980326652527, 0.28050878643989563, -0.01777808554470539, -0.31114688515663147, -0.26107725501060486, -0.02252158336341381, -0.008607514202594757, 0.1796487420797348, -0.19095443189144135, 0.016288911923766136, -0.1723194420337677, 0.0036029042676091194, 0.282707542181015, 0.28367432951927185, -0.03731311857700348, -0.17746293544769287, 0.123542919754982, 0.1238311156630516, -0.006464280188083649, 0.1381889283657074, -0.2000107765197754, 0.22049418091773987, 0.14274044334888458, 0.28609150648117065, -0.3026914596557617, -0.005790439900010824, 0.008673426695168018, 0.08116737008094788, -0.02790328487753868, 0.27741795778274536, 0.21609467267990112, 0.01580570638179779, 0.26564833521842957, 0.2688225507736206, -0.026515191420912743, -0.009412456303834915, -0.02136969566345215, 0.2728732228279114, -0.1570138782262802, 0.22235983610153198, -0.13344189524650574, -0.024918004870414734, -0.00035563422716222703, -0.03103446215391159, -0.24724642932415009, -0.007806029170751572, -0.003067951649427414, -0.2574928402900696, -0.17323005199432373, 0.2814699113368988, -0.29411038756370544, -0.2548491656780243, 0.295145720243454, 0.34204134345054626, 0.28204184770584106, 0.2892894744873047, -0.2776589095592499, -0.2321181744337082, 0.009058544412255287, -0.1945953220129013, -0.23570683598518372, -0.27670347690582275, 0.007829253561794758, 0.24166372418403625, 0.21342287957668304, 0.3111613392829895, 0.2830153703689575, 0.2678546905517578, 0.03770117834210396, 0.2786954641342163, -0.056709788739681244, 0.17406144738197327, -0.007707273121923208, -0.2176424264907837, 0.18996505439281464, -0.32273295521736145, -0.014043855480849743, 0.27157455682754517, 0.004141549579799175, -0.2320733219385147, 0.0500180721282959, 0.1075538694858551, 0.005063966847956181, -0.37150463461875916, 0.2672268748283386, -0.01867341436445713, 0.16372321546077728, 0.004876039922237396, -0.009145763702690601, -0.018297739326953888, 0.019621824845671654, -0.21462570130825043, 0.08418399095535278, -0.2911212146282196, 0.009467195719480515, 0.19503699243068695, 0.07158059626817703, -0.017002565786242485, -0.1807977855205536, 0.008770451880991459, -0.018744919449090958, 0.2504881024360657, 0.34912109375, 0.07994059473276138, 0.1895514726638794, 0.15882815420627594, -0.27334800362586975, -0.03163279965519905, -0.17137503623962402, 0.01665828377008438, 0.14358215034008026, -0.20962025225162506, -0.2996707856655121, 0.13780201971530914, -0.3191697299480438, 0.28628769516944885, -0.274657279253006, -0.00328073906712234, 0.01797270029783249, 0.18252527713775635, -0.19135507941246033, 0.0005178376450203359, 0.185212641954422, 0.08321508765220642, 0.00011272821575403214, 0.26039978861808777, 0.21476516127586365, 0.25959017872810364, 0.3084621727466583, -0.32799795269966125, -0.023560678586363792, -0.00019049926777370274, 0.269203245639801, 0.08050864189863205, -0.1676608920097351, 0.015584141947329044, 0.009405728429555893, 0.0013886773958802223, 0.26618263125419617, -0.18171252310276031, 0.28117161989212036, 0.28593119978904724, 0.22959262132644653, -0.3006760776042938, 0.20319288969039917], [-0.030324595049023628, 0.0012560415780171752, -0.040389519184827805, 0.04908614233136177, -0.019959501922130585, -0.020112717524170876, 0.0261981263756752, 0.014261319302022457, 0.10168308764696121, 0.021889327093958855, 0.07046698033809662, 0.014062389731407166, 0.03877411410212517, -0.040457677096128464, 0.004228869453072548, -0.07200472801923752, -0.004528125282377005, 0.03170689567923546, 0.053545985370874405, 0.030566422268748283, -0.007856923155486584, -0.019882824271917343, 0.010772723704576492, 0.018036944791674614, 0.012227027676999569, 0.038613054901361465, 0.05120522528886795, 0.11144204437732697, 0.033615902066230774, 0.055815789848566055, -0.007412757258862257, 0.012645449489355087, 0.01204287726432085, -0.00736080389469862, -0.026791976764798164, -0.008260652422904968, 0.05459858477115631, 0.028660066425800323, 0.02042272500693798, 0.0209000576287508, 0.018983960151672363, -0.024190429598093033, -0.02906988002359867, 0.1744750589132309, -0.003365541808307171, -0.03349367156624794, 0.014812247827649117, -0.016130784526467323, 0.007130915764719248, 0.0182366743683815, -0.024032918736338615, -0.015249076299369335, -0.036811407655477524, 0.04468420147895813, 0.03866340592503548, -0.036586835980415344, -0.03268184885382652, -0.026632018387317657, -0.053700994700193405, -0.0639813244342804, -0.032479602843523026, 0.003985853865742683, 0.023895973339676857, -0.023556174710392952, 0.01586143858730793, 0.029633572325110435, -0.027067020535469055, 0.03479887917637825, -0.09025722742080688, -0.03138456866145134, 0.007847734726965427, 0.03525322675704956, 0.07155217975378036, 0.12732049822807312, 0.005017837975174189, -0.02399713173508644, 0.0448349229991436, -0.03273891657590866, 0.04018295556306839, 0.03738313540816307, -0.013475863263010979, -0.022111084312200546, -0.03217855468392372, -0.012059076689183712, 0.20627935230731964, 0.039879389107227325, 0.01006456557661295, 0.006519495043903589, 0.05531153455376625, -0.015866205096244812, 0.04430575296282768, 0.02274644374847412, 0.001079891575500369, 0.06313450634479523, 0.06044797599315643, 0.015057263895869255, -0.005790360737591982, 0.06062440574169159, 0.02329367585480213, 0.02636570855975151, 0.05247005820274353, 0.029067691415548325, -0.011531325988471508, -0.04837074875831604, -0.014553694054484367, -0.038934990763664246, 0.004973582457751036, 0.008946417830884457, 0.001143595320172608, 0.009278134442865849, 0.03097197413444519, -0.07607132941484451, 0.0495283268392086, -0.018700171262025833, 0.012278284877538681, -5.905471698497422e-05, -0.010212408378720284, -0.008367075584828854, -0.0023907499853521585, -0.0001788968511391431, 0.004227733705192804, -0.11256542056798935, 0.004586494527757168, 0.023573096841573715, 0.0081062326207757, 0.04501970112323761, -0.048701509833335876, 0.07960349321365356, -0.03771622106432915, 0.020894696936011314, -0.02926822006702423, -0.027424199506640434, 0.010867428034543991, 0.033694952726364136, 0.04707156866788864, -0.01193130575120449, -0.0023611432407051325, -0.0441298671066761, 0.010536870919167995, -0.0370754674077034, 0.0012464647879824042, 0.0021609384566545486, -0.07252110540866852, 0.04543276131153107, 0.01609424315392971, 0.008589033968746662, 0.0033866094890981913, 0.00969371385872364, 0.04823386296629906, -0.020870354026556015, -0.01706722006201744, 0.03787979856133461, -0.020617911592125893, 0.011744151823222637, -0.005524489562958479, -0.0075102150440216064, 0.026508500799536705, -0.020571138709783554, -0.03473147749900818, 0.07433593273162842, -0.01886359229683876, -0.029304636642336845, -0.030621357262134552, -0.004856664687395096, 0.04002462327480316, 0.013493894599378109, 0.006578706670552492, -0.02636088989675045, -0.022698411718010902, 0.03487284481525421, -0.04263465851545334, -0.00820830650627613, -0.014741200022399426, 0.012062669731676579, 0.06515584886074066, 0.058163050562143326, 0.0034205082338303328, 0.010535242967307568, -0.005641705822199583, -0.009652884677052498, 0.0167453084141016, -0.0741579532623291, -0.00724149402230978, 0.028003541752696037, -0.04349970072507858, 0.10310127586126328, -0.022817082703113556, 0.009130099788308144, 0.03688773140311241, -0.006161534693092108, -0.0014595125103369355, 0.028669971972703934, 0.02230331115424633, 0.031053846701979637, -0.056708257645368576, 0.07089467346668243, 0.009421472437679768, -0.02725420705974102, -0.004085087217390537, -0.011057757772505283, -0.006003256421536207, 0.01666821539402008, -0.024581285193562508, 0.057958006858825684, -0.03211018443107605, 0.006870951969176531, 0.05137030407786369, -0.011092392727732658, 0.023425409570336342, 0.033534325659275055, -0.01245614979416132, -0.014470331370830536, 0.014697013422846794, -0.016176974400877953, 0.028378384187817574, -0.03244669735431671, 0.05319574475288391, -0.008263451978564262, -0.0053640673868358135, 0.045221421867609024, -0.005961515009403229, 0.018434900790452957, -0.05656721442937851, 0.01951001025736332, 0.05252835527062416, 0.06582864373922348, 0.012950552627444267, -0.06395453959703445, 0.010733879171311855, 0.0040869214572012424, 0.10833603143692017, -0.09496565163135529, -0.0244170930236578, -0.07104650884866714, 0.012952105142176151, -0.02993387170135975, 0.013225240632891655, 0.001749914838001132, -0.006802517455071211, 0.031289756298065186, -0.034395571798086166, 0.012710018083453178, 0.030920712277293205, 0.024386927485466003, -0.062437497079372406, -0.03167639672756195, -0.007023456506431103, -0.02197493053972721, -0.024253979325294495, 0.0030388864688575268, -0.029394755139946938, 0.00875408761203289, 0.02410724014043808, 0.03796127438545227, -0.018226835876703262, -0.007111497223377228], [-0.24645394086837769, -0.05796756222844124, -0.04674195870757103, 0.033875804394483566, -0.2090081423521042, 0.02047995664179325, 0.04777155816555023, 0.012708035297691822, -0.028044050559401512, 0.07062249630689621, 0.07952605187892914, 0.030821438878774643, 0.08611413091421127, 0.07723009586334229, 0.13200072944164276, 0.15256455540657043, 0.06130216270685196, -0.0260216873139143, 0.1141863465309143, 0.02211610972881317, 0.09197530150413513, 0.25327032804489136, 0.23542766273021698, -0.10139235109090805, -0.02667958289384842, 0.06107482686638832, 0.008843539282679558, 0.5190905332565308, 0.09156851470470428, 0.05285636708140373, 0.04234001040458679, 0.06547589600086212, 0.03375840187072754, 0.015806149691343307, -0.010537796653807163, 0.047374192625284195, 0.15549790859222412, 0.13937559723854065, -0.001060803304426372, 0.05296265706419945, 0.08647876232862473, -0.004650144837796688, -0.11582239717245102, 0.3111133575439453, -0.010236180387437344, 0.04974775016307831, -0.41101887822151184, 0.05159563198685646, 0.1333044320344925, 0.006145058199763298, 0.0022450366523116827, 0.01102876290678978, 0.3084607720375061, 0.06556335091590881, -0.27367326617240906, 0.01917189732193947, -0.024765098467469215, -0.044251952320337296, 0.07268828898668289, -0.6264978051185608, -0.012430233880877495, 0.011345579288899899, 0.07040989398956299, -0.008398507721722126, 0.004196261987090111, 0.10720536857843399, -0.01897563226521015, 0.010841170325875282, 0.1708182543516159, 0.05802043527364731, -0.01813335344195366, 0.023540478199720383, 0.3094788193702698, 0.023830516263842583, -0.011751516722142696, 0.02843763306736946, 0.10213946551084518, -0.06188058853149414, -0.12025386840105057, 0.008328072726726532, -0.0029962128028273582, 0.07593949884176254, -0.257233589887619, -0.1842866986989975, 0.1511552631855011, 0.06274887174367905, -0.024678323417901993, -0.006269184872508049, 0.008555996231734753, -0.003949976060539484, -0.01949264295399189, 0.09134795516729355, 0.050636328756809235, 0.06603323668241501, 0.06611092388629913, 0.08902915567159653, -0.09877678751945496, 0.04742618277668953, 0.07799200713634491, 0.06723189353942871, 0.05561065301299095, -0.014031036756932735, -0.007658110931515694, 0.03840223327279091, -0.21174344420433044, 0.16894836723804474, -0.16923540830612183, 0.061048004776239395, 0.022412976250052452, -0.1399603635072708, 0.02096821554005146, 0.22788548469543457, 0.07295004278421402, 0.11010762304067612, 0.012561064213514328, 0.14951567351818085, 0.015332586131989956, -0.02283148281276226, 0.05612708628177643, -0.08194394409656525, -0.017331436276435852, -0.3925202488899231, 0.027736833319067955, 0.07057332247495651, 0.15330474078655243, 0.08038883656263351, 0.22337648272514343, 0.07021588087081909, 0.009360403753817081, 0.008464508689939976, -0.005103407893329859, 0.033830028027296066, 0.08927441388368607, 0.0712064653635025, 0.08753297477960587, 0.15788127481937408, -0.015424265526235104, -0.10159152001142502, 0.0914188101887703, -0.19493038952350616, 0.1019894927740097, -0.09667038172483444, -1.3062522411346436, 0.0856095477938652, 0.03792927786707878, 0.01029212400317192, -0.03474326431751251, -0.01955583691596985, 0.07655201107263565, -0.4357066750526428, 0.1062840074300766, -0.1262318342924118, -0.02551807090640068, 0.013366998173296452, -0.018423719331622124, -0.04202858358621597, -0.023404164239764214, 0.004886527080088854, 0.0011876780772581697, 0.03879208862781525, -0.08843611180782318, -0.04592088609933853, 0.04226592183113098, -0.059220682829618454, -0.0720897987484932, 0.08008942753076553, 0.05039019137620926, 0.01326371543109417, 0.03432498127222061, -0.02466541901230812, -0.24538351595401764, 0.09733711928129196, 0.24341519176959991, 0.003854413516819477, 0.06588155031204224, 0.031095964834094048, -0.07944908738136292, 0.08473777025938034, 0.05372605100274086, -0.004226901102811098, 0.03342355415225029, -0.05544005706906319, -0.12392567098140717, -0.022982684895396233, -0.0921417698264122, 0.007143766153603792, 0.056744106113910675, 0.015108100138604641, 0.11107195168733597, -0.017544500529766083, 0.03269999846816063, -0.08961081504821777, 0.16183942556381226, 0.022522930055856705, 0.19987428188323975, 0.1194862350821495, -0.01828388124704361, 0.0542491152882576, 0.01622040756046772, 0.012516312301158905, 0.0034103458747267723, 0.0029707280918955803, 0.057875923812389374, 0.20291468501091003, -0.005156282801181078, -0.03613603487610817, 0.12916766107082367, 0.1436348557472229, 0.007454248610883951, 0.07826737314462662, 8.790980245976243e-06, 0.012799054384231567, 0.053921692073345184, -0.0129293417558074, -0.09815460443496704, 0.32109734416007996, 0.1708855926990509, 0.07266944646835327, -0.29624491930007935, -0.22590990364551544, 0.008566267788410187, 0.22593538463115692, -0.2823133170604706, 0.03676607459783554, 0.26225244998931885, 0.19348998367786407, -0.09161726385354996, -0.060646552592515945, 0.00506581598892808, 0.012881086207926273, 0.20015963912010193, -0.2047402709722519, 0.0036878325045108795, -0.04789575934410095, -0.07067492604255676, -0.014279107563197613, 0.13860774040222168, 0.13310904800891876, 0.0173949021846056, 0.10201308876276016, 0.01122016180306673, -0.000900493934750557, -0.018925711512565613, -0.15783046185970306, 0.06748044490814209, -0.1238805428147316, 0.012923341244459152, -0.018466249108314514, 0.010241392068564892, 0.04590796306729317, 0.016799479722976685, 0.04351356625556946, 0.05544356256723404, 0.11409062147140503, 0.08940493315458298, 0.07315652072429657], [0.14995451271533966, -0.16340914368629456, 0.03143085539340973, 0.2553127110004425, 0.18552511930465698, -0.23574823141098022, 0.2333724945783615, -0.0008931368938647211, 0.134037584066391, 0.2269047498703003, 0.2252110093832016, 0.019234472885727882, 0.29159659147262573, 0.20934303104877472, 0.08474057912826538, 0.17608344554901123, 0.2235737442970276, -0.27627745270729065, 0.2342085838317871, 0.25251251459121704, 0.21998119354248047, 0.03686155006289482, 0.027732979506254196, -0.11358556896448135, 0.18925794959068298, 0.20638960599899292, 0.2448854148387909, -0.13213585317134857, 0.1871112436056137, 0.22984401881694794, 0.23760299384593964, 0.251761257648468, 0.24900320172309875, -0.024579687044024467, 0.193888321518898, -0.23534232378005981, 0.23916557431221008, 0.11511547118425369, -0.0013403925113379955, 0.21612486243247986, 0.17534412443637848, 0.03889135643839836, 0.26214146614074707, 0.13932499289512634, -0.05030810087919235, -0.2747174799442291, 0.27658915519714355, 0.23268043994903564, 0.20968040823936462, 0.003777804784476757, 0.012134424410760403, -0.016480572521686554, 0.057219527661800385, 0.24102085828781128, 0.13819533586502075, -0.26715418696403503, 0.03789076209068298, -0.17370328307151794, -0.24579419195652008, -0.05783100798726082, 0.11392592638731003, 0.3072345554828644, 0.2774087190628052, -0.010051814839243889, 0.003668910823762417, 0.2502065598964691, -0.012140804901719093, 0.30026179552078247, -0.2560189366340637, 0.18436259031295776, -0.033402059227228165, 0.2777109146118164, 0.14398156106472015, -0.1875893771648407, 0.03892107680439949, -0.004943797364830971, 0.22170647978782654, -0.01541096344590187, -0.04137130454182625, -0.12648902833461761, -0.0032314436975866556, -0.25047722458839417, -0.16015195846557617, 0.24291352927684784, 0.14185768365859985, -0.26497402787208557, 0.0019295713864266872, 0.030093811452388763, 0.27933818101882935, -0.028553983196616173, 0.14522674679756165, 0.24829170107841492, 0.23791038990020752, 0.2564280033111572, 0.22472979128360748, 0.13636824488639832, 0.05443427339196205, 0.28542420268058777, -0.2246701717376709, 0.28321316838264465, 0.21496102213859558, 0.03308714181184769, -0.013723953627049923, 0.21910583972930908, 0.10877639800310135, 0.2786955237388611, -0.1788904368877411, 0.2527712881565094, -0.015604978427290916, 0.2514526844024658, 0.2573530673980713, -0.039208121597766876, 0.23301097750663757, 0.18234118819236755, -0.26772016286849976, 0.06538479775190353, -0.008355184458196163, 0.023476039990782738, 0.16199371218681335, -0.13627001643180847, 0.008200599811971188, -0.14572115242481232, 0.013591614551842213, 0.27447423338890076, 0.23352544009685516, -0.19229963421821594, 0.1251276284456253, 0.04583175107836723, 0.13964712619781494, -0.007218579296022654, 0.19275601208209991, -0.16190238296985626, 0.21131880581378937, 0.16767609119415283, 0.24898619949817657, -0.09252557903528214, -0.02573545090854168, 0.31230127811431885, 0.09112999588251114, 0.0040883696638047695, 0.18364673852920532, 0.08556615561246872, 0.007377150002866983, 0.2599635422229767, 0.24886396527290344, -0.0017986377933993936, -0.0026206918992102146, -0.011630238965153694, 0.2687600255012512, -0.15320685505867004, 0.18137933313846588, -0.1400781124830246, 0.011676163412630558, 0.013945448212325573, -0.012442284263670444, -0.19439400732517242, -0.022888511419296265, 0.031247247010469437, -0.20712551474571228, -0.1431131213903427, 0.3135976493358612, -0.29365164041519165, -0.2164858728647232, 0.24531351029872894, 0.2154913693666458, 0.2672472894191742, 0.2745429277420044, -0.24467593431472778, -0.22940562665462494, 0.008717063814401627, -0.16856826841831207, -0.25546520948410034, -0.03604372590780258, 0.032476626336574554, 0.2614755630493164, 0.2477896511554718, 0.3391477167606354, 0.28682124614715576, 0.2734612226486206, 0.004801996052265167, 0.25416699051856995, 0.00043291618931107223, 0.2445170134305954, -0.020077042281627655, -0.21032649278640747, 0.10097453743219376, -0.28784918785095215, -0.011993137188255787, 0.19432573020458221, -7.26420184946619e-05, -0.2585736811161041, 0.05010954290628433, 0.12136683613061905, -0.03972052037715912, -0.07537582516670227, 0.24356190860271454, 0.0052979267202317715, 0.13428466022014618, -0.015407477505505085, 0.006042360328137875, -0.024610307067632675, -0.006165847647935152, -0.21915404498577118, 0.12629354000091553, -0.22195115685462952, -0.02296290174126625, 0.185372993350029, 0.08530856668949127, -0.023542894050478935, 0.022980809211730957, -0.024605080485343933, 0.01038997620344162, 0.2089962214231491, 0.24876649677753448, 0.18599432706832886, 0.11975758522748947, 0.14887948334217072, -0.24704164266586304, 0.0896645039319992, -0.208546981215477, -0.0008825173135846853, 0.23796795308589935, -0.20805060863494873, -0.26169759035110474, 0.10638951510190964, -0.27163293957710266, 0.11822538077831268, -0.2342716008424759, -0.006810600403696299, -0.00274445372633636, 0.1968630999326706, -0.16833342611789703, 0.008376182988286018, 0.08451119810342789, 0.03142280504107475, -0.016706334426999092, 0.14341485500335693, 0.18160654604434967, 0.21019110083580017, 0.26841971278190613, -0.23658782243728638, -0.003977813757956028, -0.022890884429216385, 0.25289085507392883, 0.12153132259845734, -0.1689995527267456, 0.009255803190171719, 0.0023636803962290287, 0.015141003765165806, 0.23752513527870178, -0.16780373454093933, 0.2729974687099457, 0.21166253089904785, 0.15151187777519226, -0.2849445641040802, 0.1712256371974945], [0.027637910097837448, -0.016920382156968117, 0.049220796674489975, 0.09042124450206757, -0.025013482198119164, -0.07287822663784027, 0.06072380021214485, 0.013167649507522583, 0.18078258633613586, 0.05831930413842201, 0.050744205713272095, -0.004217061679810286, 0.06437275558710098, 0.09851911664009094, 0.07140223681926727, 0.05084668844938278, 0.05767647549510002, -0.053508590906858444, 0.10435869544744492, 0.04905058443546295, 0.09419449418783188, -0.05451628193259239, 0.14459936320781708, 0.06282709538936615, 0.08746392279863358, 0.10457839071750641, 0.09371870756149292, 0.06403959542512894, 0.10918669402599335, 0.048275209963321686, 0.007949979975819588, 0.0536009855568409, 0.05133993551135063, -0.0019689202308654785, 0.08631296455860138, -0.033371079713106155, 0.053652431815862656, 0.05815932899713516, 0.03502644598484039, 0.08105836808681488, 0.05379743129014969, 0.00699341157451272, -0.306194931268692, 0.2041804939508438, -0.009227368980646133, -0.07179096341133118, -0.256563663482666, 0.06296747177839279, 0.0922582671046257, 0.0010395655408501625, -0.01442574243992567, -0.0004949948051944375, 0.1123424544930458, 0.09048297256231308, -0.259664922952652, -0.04171369969844818, -0.027683336287736893, -0.0511091947555542, 0.06805712729692459, -0.05442748963832855, 0.02301851660013199, 0.029060428962111473, 0.058349333703517914, 0.02229899913072586, -0.021493759006261826, 0.08914168924093246, -0.019788110628724098, 0.09954198449850082, -0.17395839095115662, 0.0014164717867970467, 0.004679314326494932, 0.07681531459093094, 0.04740222543478012, 0.024623407050967216, -0.003970450256019831, 0.026560936123132706, 0.06384142488241196, -0.023008685559034348, -0.24042123556137085, 0.061561159789562225, 0.026764720678329468, -0.0733572244644165, 0.043887291103601456, -0.001758150989189744, -0.03341597318649292, -0.036652885377407074, 0.008921533823013306, 0.0084815239533782, 0.0728476271033287, 0.010152807459235191, 0.0906904935836792, 0.07048635184764862, 0.06779101490974426, 0.0767405554652214, 0.06238178536295891, 0.15066377818584442, -0.05772768706083298, 0.08818752318620682, 0.05619592219591141, 0.07113209366798401, 0.06113312020897865, -0.008354750461876392, 0.021091526374220848, 0.05606885999441147, 0.07538481801748276, -0.04843475669622421, -0.09582929313182831, 0.05168520659208298, 1.2815710761060473e-05, 0.08354190737009048, 0.07638021558523178, 0.010891229845583439, 0.09930629283189774, 0.029958589002490044, -0.07400661706924438, -0.01790604740381241, 0.007294744718819857, 0.026585420593619347, 0.0700027272105217, 0.01639769785106182, -0.0023700266610831022, -0.060340311378240585, 0.01204658392816782, 0.09308136254549026, 0.10389073193073273, 0.017536675557494164, 0.03589024767279625, 0.0060633099637925625, 0.004669676534831524, 0.0014796691248193383, 0.04296870157122612, -0.037247560918331146, 0.10468199849128723, 0.13747629523277283, 0.03222564235329628, 0.037776995450258255, 0.011184263043105602, -0.015525848604738712, 0.034789007157087326, -0.022157683968544006, 0.06626638770103455, -0.03182071074843407, 0.03979961946606636, 0.08660218864679337, 0.07244192808866501, 0.002861527493223548, -0.03290935233235359, -0.008373118005692959, 0.07626975327730179, -0.0019542614463716745, 0.101678766310215, -0.23846198618412018, 0.017150290310382843, -0.011915548704564571, -0.02378157153725624, -0.08179134875535965, 0.022208528593182564, -0.018122004345059395, -0.0811137855052948, -0.06722444295883179, -0.022932520136237144, -0.06060538440942764, -0.038670528680086136, 0.07133274525403976, 0.10937193781137466, 0.05701833963394165, 0.08753812313079834, -0.02516930177807808, -0.08608170598745346, -0.03351825103163719, -0.013450611382722855, -0.047958437353372574, -0.11859569698572159, -0.008498135954141617, 0.06412418931722641, 0.08472898602485657, -0.035616807639598846, 0.08834929019212723, 0.11245159059762955, 0.00833045318722725, 0.07820644974708557, 0.08638355880975723, -0.30135199427604675, 0.004908403847366571, -0.03162870183587074, 0.09134398400783539, -0.031183691695332527, 0.008070803247392178, 0.02202378399670124, -0.01734946109354496, -0.042189061641693115, 0.028744157403707504, 0.03709901124238968, -0.011801217682659626, 0.10693991184234619, 0.11536270380020142, -0.013319690711796284, 0.05131674185395241, 0.022300461307168007, 0.001175768906250596, 0.009472675621509552, -0.009430640377104282, -0.08663038164377213, 0.06712791323661804, -0.08807767182588577, 0.03655177354812622, 0.12802892923355103, 0.07392026484012604, -0.0023408476263284683, 0.03252537176012993, 0.038128018379211426, 0.008215608075261116, 0.08656056970357895, 0.011685910634696484, 0.15545471012592316, 0.0754949077963829, 0.11627363413572311, -0.0652959793806076, 0.005474474281072617, -0.03835645690560341, -0.024700840935111046, 0.00016569765284657478, 0.05601787567138672, -0.06892553716897964, 0.17188774049282074, 0.09377657622098923, 0.03553266078233719, -0.08254341781139374, -0.01647759974002838, -0.027411438524723053, 0.15564826130867004, -0.11394183337688446, -0.03105032630264759, -0.1317666620016098, -0.0723927691578865, -0.004895498510450125, 0.07875794172286987, 0.07132618874311447, 0.11545689404010773, 0.1135694608092308, -0.1075422465801239, 0.00077289086766541, -0.024659182876348495, -0.02106623537838459, 0.03988486900925636, -0.05633710324764252, -0.039665061980485916, -0.02241797000169754, -0.0044281575828790665, 0.10598205029964447, -0.042076122015714645, 0.09230540692806244, 0.07442137598991394, 0.014398843981325626, -0.06258324533700943, 0.054265279322862625], [-0.0306209959089756, -0.01667250506579876, -0.0834626704454422, 0.013198135420680046, 0.02991240844130516, -0.012257599271833897, 0.03445759415626526, -0.022846391424536705, 0.15525008738040924, -0.0009230792056769133, 0.02931339107453823, -0.0005486052250489593, -0.010850448161363602, 0.00460165087133646, -0.017332468181848526, 0.022701283916831017, 0.024547165259718895, -0.020476415753364563, 0.02006216160953045, 0.03491713106632233, -0.0022134596947580576, 0.032731689512729645, 0.02684062346816063, -0.03146202489733696, 0.014711658470332623, 0.05103713274002075, 0.003987782634794712, 0.0607181191444397, 0.017104381695389748, 0.00848193559795618, 0.0072642965242266655, 0.019330201670527458, 0.010189646854996681, 0.009042172692716122, 0.0075400397181510925, 0.009850985370576382, 0.038040947169065475, 0.047331228852272034, 0.02825789712369442, -0.01389259472489357, -0.014052614569664001, 0.014562024734914303, -0.010036134161055088, 0.05876653268933296, -0.051235731691122055, -0.032454606145620346, 0.0019994480535387993, -0.026883451268076897, 0.030332401394844055, 0.016805611550807953, 0.0009853995870798826, 0.008118716068565845, -0.08242706209421158, 0.024396877735853195, -0.027612775564193726, 0.014407945796847343, -0.010612748563289642, 0.05395584553480148, -0.03464159741997719, -0.02506239153444767, -0.05389857664704323, 0.026958931237459183, -0.00631673401221633, 0.017124852165579796, 0.01255813054740429, 0.04508217051625252, 0.020342057570815086, 0.00963143352419138, 0.01496828068047762, 0.021608427166938782, -0.016262128949165344, 0.044332344084978104, 0.02347138151526451, -0.012978988699615002, 0.020628031343221664, 0.010248602367937565, -0.012303517200052738, -0.007504126522690058, 0.01121524441987276, 0.026252465322613716, -0.018247827887535095, 0.0461958684027195, 0.11115312576293945, -0.13403518497943878, 0.16319459676742554, 0.0014712841948494315, -0.01776880957186222, -0.012929465621709824, 0.0035427066031843424, 0.004139305092394352, -0.010779299773275852, 0.01538882963359356, 0.02751162461936474, 0.036082640290260315, 0.0013130927691236138, 0.06398677825927734, -0.010349425487220287, 0.008271646685898304, -0.020364291965961456, 0.0027786686550825834, 0.007237362675368786, 0.002185225021094084, 0.014732876792550087, 0.027205513790249825, -0.149952232837677, 0.025036916136741638, -0.011464860290288925, 0.048984676599502563, 0.029077934101223946, 0.0006255225744098425, -0.014969605952501297, 0.049784060567617416, 0.015777166932821274, -0.0045973798260092735, 0.007328577805310488, -0.0015715401386842132, -0.022758470848202705, -0.0009430642239749432, 0.06386259943246841, 0.03734470531344414, 0.00394840631633997, 0.0036625671200454235, -0.014321653172373772, 0.007048189640045166, 0.0036169015802443027, 0.03342913091182709, 0.037349432706832886, -0.2418311983346939, -0.007611808367073536, -0.027564238756895065, 0.00807122327387333, -0.02870991639792919, 0.028291579335927963, 0.05574099346995354, -0.0033232620917260647, 0.02746954746544361, -0.008139955811202526, 0.03659357130527496, -0.006197565235197544, 0.05637849494814873, -0.010111053474247456, -0.15247301757335663, -0.010204724036157131, 0.04346686974167824, 0.0032344041392207146, 0.00034605199471116066, -0.0119014335796237, -0.022371163591742516, 0.025865981355309486, -0.016463637351989746, -0.010584326460957527, 0.006949175149202347, -0.016219789162278175, 0.010106880217790604, 0.012598494999110699, -0.02614317648112774, 0.026336871087551117, 0.021253172308206558, -0.017335468903183937, 0.002871978795155883, -0.005936970468610525, -0.023638751357793808, -0.025886639952659607, 0.015365003608167171, 0.014775407500565052, -0.0040135569870471954, 0.04039652273058891, -0.04738028720021248, -0.018784964457154274, -0.014403123408555984, -0.009985131211578846, -0.009648858569562435, 0.008375795558094978, -0.01736760139465332, 0.048759400844573975, 0.01758948713541031, 0.0036621445324271917, 0.022696740925312042, 0.03653412684798241, -0.00457133399322629, 0.03538176044821739, 0.07473398745059967, -0.001996294828131795, 0.008517386391758919, -0.018492022529244423, 0.07892179489135742, 0.03085177391767502, 0.0007777297287248075, 0.03859464079141617, 0.0189985278993845, -0.03193705156445503, -0.006656057201325893, -0.04437356814742088, -0.002068042289465666, 0.0731416642665863, 0.0465661995112896, -0.024010248482227325, -0.010209941305220127, -0.022018419578671455, 0.020048901438713074, -0.020027875900268555, 0.0014677095459774137, 0.0055268737487494946, -0.020834868773818016, -0.07693386822938919, -0.03178727999329567, 0.03657263517379761, 0.022062625735998154, -0.012532645836472511, 0.08825022727251053, -0.009869532659649849, 0.024065863341093063, -0.003542995313182473, 0.011527595110237598, -0.03729643300175667, -0.015190615318715572, 0.01828920468688011, -0.010823918506503105, 0.06844398379325867, 0.01792505756020546, 0.01607227697968483, -0.03983259201049805, -0.01382419839501381, -0.03902757167816162, 0.06093756482005119, 0.09869813919067383, -0.16254180669784546, -0.049999624490737915, 0.006760182324796915, 0.02952132187783718, 0.05605560913681984, -0.04602094739675522, 0.004425293765962124, -0.13521794974803925, -0.019138427451252937, 0.023011552169919014, -0.029797477647662163, 0.06779339164495468, 0.003853201400488615, 0.03529307618737221, 0.013289796188473701, -0.023571260273456573, -0.003989188000559807, -0.10388484597206116, -0.025893574580550194, 0.02852657064795494, -0.004430606961250305, -0.0012429768685251474, -0.009528310969471931, 0.002241982612758875, 0.005913225468248129, 0.000708038336597383, 0.003822850063443184, 0.014432947151362896, -0.025104044005274773, 0.03696899116039276], [0.016935575753450394, 0.030685190111398697, 0.03566858172416687, -0.004122668411582708, -0.030679158866405487, 0.022647932171821594, 0.010821932926774025, -0.009765679948031902, 0.07878335565328598, 0.014914454892277718, 0.022994257509708405, -0.01654093898832798, 0.026381947100162506, 0.0010094918543472886, -0.003947664052248001, 0.012306624092161655, -0.007614168804138899, 0.031852126121520996, 0.03273390233516693, 0.017273975536227226, -0.008805768564343452, -0.023971689864993095, 0.03742397204041481, 0.009282806888222694, 0.005943654105067253, 0.000751935935113579, 0.043723512440919876, 0.06517449021339417, 0.014729717746376991, 0.03042953461408615, -0.04885948449373245, -0.01851228065788746, 0.02153424173593521, -0.011249903589487076, -0.038798749446868896, -0.03535175696015358, -0.0028759462293237448, 0.017963001504540443, -0.008490076288580894, -0.002575509948655963, 0.005049913190305233, -0.005746474023908377, -0.0031269630417227745, 0.16048599779605865, -0.03504784405231476, 0.03366728499531746, -0.030164258554577827, -0.031703799962997437, 0.015515614300966263, -0.0348956398665905, -4.151169196120463e-05, -0.017384519800543785, -0.034638307988643646, -0.005628461949527264, -0.022212393581867218, 0.044104233384132385, -0.023627957329154015, 0.020842427387833595, -0.03207296133041382, 0.033675044775009155, -0.04946320876479149, -0.016961053013801575, 0.003162997541949153, -0.030533768236637115, -0.020255209878087044, 0.008121399208903313, -0.00884254276752472, 0.0024293733295053244, -0.009950925596058369, -0.018122809007763863, -0.01300723385065794, -0.0010636395309120417, 0.13248008489608765, 0.03462417051196098, -0.006336471997201443, -0.023824848234653473, -0.02495097741484642, -0.03636789321899414, -0.0012871394865214825, 0.023756634443998337, -0.029885973781347275, 0.01895749382674694, 0.027893556281924248, -0.019785694777965546, 0.019850855693221092, 0.0267765112221241, -0.010848059318959713, -0.02209700457751751, -0.02313844859600067, -0.009746245108544827, -0.021278217434883118, 0.01999579556286335, 0.009575233794748783, 0.027276750653982162, 0.018971918150782585, 0.028026022017002106, -0.015987131744623184, 0.008927120827138424, 0.017000973224639893, 0.006917065940797329, -0.03057202696800232, -0.032622162252664566, -0.019910648465156555, -0.01073945127427578, 0.003331567393615842, 0.01357549149543047, 0.01535182073712349, 0.01225419994443655, 0.005865202285349369, 0.007582357153296471, -0.016769617795944214, 0.053037818521261215, 0.022977272048592567, 0.007280128542333841, 0.037353094667196274, 0.0862162783741951, 0.007992805913090706, -0.013150804676115513, -0.011223236098885536, 0.0171943511813879, 0.006324043031781912, 0.02246830239892006, -0.011605046689510345, 0.036224495619535446, -0.0037225508131086826, 0.006056651473045349, 0.008196409791707993, -0.030666973441839218, -0.015362915582954884, 0.007638735231012106, -0.017898961901664734, -0.02551429718732834, -0.018116576597094536, 0.0642317533493042, -0.0006006733165122569, 0.022113820537924767, -0.024700216948986053, 0.017000004649162292, -0.04094322398304939, 0.019257234409451485, -0.043407753109931946, 0.008270716294646263, 0.016004076227545738, 0.033732496201992035, -0.022003768011927605, -0.004849582444876432, -0.009268390946090221, -0.034799132496118546, 0.009175647981464863, 0.0032063478138297796, 0.023442909121513367, 0.02645248919725418, -0.01723421737551689, -0.002093970775604248, -0.00948320608586073, 0.03996134549379349, 0.0017571451608091593, -0.005104902666062117, 0.03455519676208496, 0.016855783760547638, -0.032188672572374344, 0.0560411773622036, 0.02340603433549404, -0.0707431435585022, -0.004554531536996365, -0.01881403848528862, 0.0320466086268425, 0.04422828555107117, 0.011985431425273418, -0.033959127962589264, 0.02982266992330551, 0.013805531896650791, 0.0733727365732193, -0.015666892752051353, 0.02870083414018154, 0.025651322677731514, -0.035277724266052246, 0.016777096316218376, -0.00785218458622694, -0.030678225681185722, -0.020643122494220734, 0.03537015989422798, 0.014170493930578232, -0.014228145591914654, 0.04118989780545235, 0.07323361188173294, 0.016909128054976463, -0.023700103163719177, -0.04120566323399544, -0.010972406715154648, 0.041847456246614456, 0.024857543408870697, -0.015850236639380455, -0.02704494260251522, 0.04116188734769821, 0.01935558393597603, -0.010696928016841412, -0.02477308362722397, -0.011569228023290634, -0.027499424293637276, -0.014584917575120926, -0.011950825341045856, 0.046729862689971924, 0.05353466048836708, 0.0029067262075841427, -0.010534779168665409, 0.032042909413576126, -0.010919816792011261, -0.007156007457524538, 0.06369452178478241, -0.006192156113684177, 0.0058520701713860035, 0.007189026102423668, -0.07139170914888382, 0.03942453861236572, 0.006279272027313709, 0.04475272819399834, 0.03159390762448311, 0.04534333944320679, 0.020238200202584267, 0.004157646093517542, 0.057544413954019547, -0.019571103155612946, 0.024296706542372704, 0.07304485142230988, 0.06582054495811462, -0.01133708469569683, 0.039613667875528336, -0.020773138850927353, -0.021337920799851418, 0.07394342869520187, 0.03375286981463432, -0.009504569694399834, -0.029591567814350128, 0.054940029978752136, 0.0021199334878474474, -0.0005978184635750949, 0.026658885180950165, -0.0169295072555542, 0.027972113341093063, 0.006374656222760677, -0.019748670980334282, -0.006280975881963968, -0.00580564234405756, -0.017484933137893677, 0.0001894354063551873, -0.00721638323739171, -0.007938040420413017, -0.03194217383861542, -0.012935984879732132, 0.004539353307336569, 0.0062431031838059425, 0.023083018139004707, -0.008680608123540878, 0.03483732044696808, -0.026351915672421455], [-0.029564350843429565, -0.00983569398522377, -0.018004240468144417, -0.012873109430074692, 0.01316912192851305, 0.001919576316140592, 0.0033801898825913668, -0.017392423003911972, 0.02299950271844864, -0.006987720262259245, 0.03398386761546135, 0.004326166585087776, 0.01718073897063732, 0.008643044158816338, -0.005110856145620346, -0.04029380530118942, -0.0068052466958761215, 0.017546480521559715, 0.021219121292233467, 0.017012322321534157, 0.014136159792542458, -0.006280958186835051, -0.01770756207406521, -0.0011299457401037216, -0.036064229905605316, -0.008769753389060497, -0.012364979833364487, 0.01942501775920391, 0.03027437813580036, 0.012164806947112083, -0.01555250957608223, -0.0005482592969201505, 0.0075777750462293625, -0.021011849865317345, -0.014711595140397549, 0.028218531981110573, -0.00546497805044055, 0.01338087860494852, -0.034449346363544464, -0.004344783257693052, -0.0010263528674840927, -0.019308507442474365, -0.025502894073724747, 0.09029382467269897, 0.008169165812432766, 0.011326146312057972, 0.01943289302289486, -0.0020295162685215473, 0.021899275481700897, -0.011600017547607422, -0.03459596633911133, 0.0049667987041175365, 0.028805069625377655, -0.022568143904209137, 0.025778619572520256, 0.0024491543881595135, -0.011961826123297215, -0.023687850683927536, 0.03141926974058151, -0.051438719034194946, -0.010315317660570145, -0.06324100494384766, 0.008344117552042007, -0.02848055586218834, -0.03895865008234978, -0.004924692679196596, 0.0028758991975337267, -0.0031781652942299843, 0.009425424970686436, -0.0011205364717170596, -0.03599916025996208, 0.021221961826086044, 0.011191434226930141, 0.04132428020238876, -0.012788156047463417, -0.00023510945902671665, 0.039392877370119095, -0.033929210156202316, -0.005264661740511656, -0.007118454668670893, -0.012423844076693058, -0.004790386185050011, -0.03308755159378052, -0.019292593002319336, -0.016171609982848167, 0.035016018897295, -0.01788727194070816, -0.0003854339011013508, 0.002770836465060711, 0.010209901258349419, -0.015424780547618866, -0.005424333270639181, 0.007735707331448793, 0.005846885964274406, 0.00864491704851389, 0.019424831494688988, -0.013639390468597412, -0.011743440292775631, -0.016911106184124947, 0.022596657276153564, 0.009503498673439026, -0.016649525612592697, 0.0008315509767271578, -0.0047162300907075405, 0.006940274033695459, -0.011132030747830868, 0.035279348492622375, 0.0158808846026659, -0.019308678805828094, -0.04841398820281029, -0.004927614238113165, 0.002074236748740077, -0.014365850947797298, -0.042837243527173996, 0.0045466129668056965, -0.01650441624224186, -0.02033125050365925, -0.021763527765870094, -0.013694205321371555, -0.020126773044466972, 0.0013579828664660454, -0.036880023777484894, -0.03667460009455681, -0.010341646149754524, -0.02891966886818409, -0.007042750250548124, -0.029327142983675003, -0.006673241034150124, -0.02668212540447712, -0.032157376408576965, -0.029215728864073753, 0.007492479868233204, 0.0015034315874800086, 0.018680747598409653, 0.03150949627161026, 0.024883298203349113, 0.00995984673500061, -0.009479602798819542, -0.01319671981036663, -0.010798460803925991, 0.013513347133994102, 0.027522986754775047, -0.011671551503241062, -0.0031334972009062767, 0.003912095446139574, -0.014102312736213207, -0.03272932767868042, 0.013445954769849777, 0.010421990416944027, 0.006972176488488913, 0.00903687160462141, 0.039093419909477234, -0.03414767608046532, 0.000645212538074702, 0.0001636766828596592, -0.033919792622327805, -0.019767720252275467, -0.0008008175645954907, -0.028765205293893814, 0.007759192958474159, -0.024341704323887825, 0.017844973132014275, -0.006735553499311209, 0.006403099279850721, -0.03494024649262428, 0.006969631649553776, 0.003790522227063775, -0.018118958920240402, -0.02334457077085972, 0.026390817016363144, -0.04875429719686508, -0.0038072874303907156, 0.015818122774362564, 0.011396916583180428, -0.0005090569029562175, 0.01790602318942547, -0.01746896654367447, 0.0005922528798691928, 0.004899898543953896, -0.006321768742054701, -0.0036171579267829657, -0.024732155725359917, -0.05640026181936264, -0.022221338003873825, -0.044593993574380875, -0.0328337736427784, 0.02675037458539009, 0.01177529338747263, -0.044068701565265656, -0.014687979593873024, -0.007166864350438118, -0.0004351447569206357, 0.0005064200959168375, -0.005798590835183859, -0.010980612598359585, 0.008580022491514683, -0.03173905983567238, -0.006810002960264683, -0.030688075348734856, 0.0027072434313595295, -0.01970314420759678, -0.008537937887012959, -0.026294736191630363, -0.014578494243323803, -0.01629084348678589, 0.005355904344469309, -0.04255988821387291, -0.038106609135866165, -0.014737376011908054, -0.002149180043488741, 0.008432514034211636, -0.02905595488846302, -0.020416656509041786, -0.01997801847755909, -0.016030918806791306, -0.011621502228081226, 0.012185287661850452, -0.007246044464409351, -0.03675549104809761, 